34 128
34 0.225998 0.142059 -0.022562 -0.090805 0.190234 -0.113719 0.184257 0.079759 0.031838 0.083043 0.170877 0.096301 -0.288997 -0.234185 -0.015578 -0.126512 0.058762 0.175551 0.003142 0.229230 0.040963 0.156928 0.017230 -0.075878 -0.146944 -0.123828 -0.015125 0.081781 -0.002925 0.272605 0.043048 0.116676 0.089235 -0.003737 0.051904 0.019719 0.072632 -0.071745 0.097042 0.022481 -0.012410 -0.007750 0.256425 -0.055014 -0.026377 -0.007096 -0.056143 -0.004677 -0.112529 0.041730 -0.129318 -0.058329 0.089373 -0.104418 -0.079190 -0.140949 -0.325867 0.042086 0.174604 -0.158443 -0.056584 0.133585 -0.090547 0.119202 -0.012436 0.027289 0.006449 0.061961 0.036216 -0.132250 0.051153 0.134044 0.062985 0.186074 0.078913 -0.128449 -0.051691 -0.130899 0.048896 0.026776 -0.003731 0.116088 0.050205 -0.009873 0.048860 0.086349 0.068180 -0.038401 -0.160133 -0.203699 -0.173834 -0.155687 0.029969 0.015223 -0.035490 -0.014417 0.063828 -0.054990 0.151938 -0.139276 -0.021030 0.120480 -0.120660 -0.056638 -0.028306 -0.087495 0.017447 -0.023796 -0.079680 0.098371 -0.060775 0.103237 -0.051115 0.121037 0.092393 -0.055845 -0.089839 0.098447 0.074659 0.221126 -0.110398 0.013790 -0.056794 0.113284 -0.080230 -0.146417 0.051392 0.198728
1 0.140347 -0.054932 -0.006711 -0.155555 0.146881 -0.036853 0.110469 0.030471 0.130776 0.105069 0.211854 0.050271 -0.113745 -0.127892 -0.045443 -0.078460 0.028140 0.216612 -0.035560 0.234739 0.084950 0.080429 0.005297 -0.113454 -0.208804 -0.092545 0.042362 0.019229 -0.013924 0.288587 -0.045907 -0.025118 0.032353 -0.088661 0.055768 -0.041328 0.001982 -0.060547 0.173225 0.048534 0.021702 -0.066915 0.190496 -0.066966 -0.099433 -0.035249 0.002892 0.016413 -0.114340 0.047775 -0.027697 -0.003943 -0.026682 -0.047262 0.014638 -0.039176 -0.176638 0.027778 0.042757 -0.159353 0.009948 0.159795 -0.010482 -0.009379 0.021122 0.077350 0.009116 0.062654 -0.013288 -0.263737 0.014829 0.169750 0.092801 0.160798 0.106645 -0.013684 -0.100037 -0.173092 -0.050923 0.086906 -0.047698 0.133615 0.094507 -0.088328 0.009959 0.129167 0.119042 0.029176 -0.248658 -0.207598 -0.185952 -0.180968 0.028628 -0.005660 -0.098911 0.081193 0.164757 -0.015681 -0.023005 -0.046769 0.000471 0.013754 -0.102973 -0.060704 -0.088433 0.004712 -0.019780 -0.106322 -0.049842 0.098850 -0.044685 0.151353 0.016319 0.033212 0.072748 -0.064682 -0.095250 0.091789 0.098837 0.120222 -0.117804 0.036469 0.001494 -0.049925 -0.098983 -0.283645 0.077739 0.225249
33 0.195192 0.081681 -0.023343 -0.110654 0.176118 -0.095840 0.155553 0.060385 0.058053 0.084581 0.179716 0.076049 -0.233477 -0.195486 -0.025840 -0.111034 0.055271 0.180599 -0.010335 0.228423 0.052883 0.129829 0.016371 -0.089695 -0.161441 -0.113511 0.004804 0.067473 -0.004755 0.274281 0.019709 0.076892 0.068408 -0.028869 0.054663 -0.001292 0.051551 -0.064286 0.117334 0.030390 0.003891 -0.025105 0.236540 -0.058163 -0.050647 -0.016693 -0.038481 0.001680 -0.108293 0.035713 -0.104455 -0.041568 0.050029 -0.088451 -0.053937 -0.108477 -0.274423 0.037085 0.140441 -0.157681 -0.038827 0.144001 -0.067978 0.081228 -0.007004 0.036538 0.008022 0.064395 0.016297 -0.170395 0.042879 0.146075 0.076502 0.171861 0.085755 -0.099150 -0.065331 -0.144093 0.019811 0.046890 -0.017390 0.114993 0.062457 -0.033430 0.035999 0.098463 0.081665 -0.021241 -0.180526 -0.198593 -0.170653 -0.159028 0.031591 0.005648 -0.051495 0.011501 0.089255 -0.046494 0.102274 -0.111956 -0.011624 0.088455 -0.110824 -0.053028 -0.050312 -0.053799 0.009084 -0.047434 -0.071960 0.094572 -0.053352 0.115172 -0.029190 0.090137 0.088857 -0.057176 -0.091339 0.098842 0.081529 0.191690 -0.112630 0.018541 -0.036568 0.068318 -0.086664 -0.184251 0.056017 0.207567
3 0.185516 0.036368 -0.014744 -0.126799 0.177883 -0.074556 0.142325 0.054266 0.090407 0.097838 0.200402 0.077733 -0.201535 -0.182811 -0.029052 -0.103386 0.046168 0.195671 -0.017640 0.229888 0.058455 0.121822 0.007446 -0.101745 -0.184360 -0.114308 0.013149 0.053905 -0.008302 0.280354 -0.006632 0.048750 0.065913 -0.049564 0.056646 -0.018286 0.034823 -0.064754 0.137958 0.038069 0.003172 -0.037414 0.226488 -0.059550 -0.069058 -0.026129 -0.025380 0.002368 -0.123082 0.049139 -0.087490 -0.034404 0.028655 -0.073008 -0.036930 -0.091593 -0.251987 0.037924 0.112736 -0.167054 -0.023261 0.152516 -0.050940 0.049688 0.004681 0.052375 0.013470 0.060154 0.008738 -0.204690 0.031742 0.158602 0.084436 0.180226 0.090840 -0.068873 -0.072354 -0.158572 -0.008752 0.055121 -0.023671 0.128156 0.074910 -0.053716 0.023402 0.110146 0.095433 0.001744 -0.210976 -0.208485 -0.186842 -0.176673 0.027615 0.004688 -0.074065 0.036041 0.123471 -0.032703 0.069760 -0.093184 -0.008624 0.070609 -0.108757 -0.062839 -0.063596 -0.042497 -0.001159 -0.069235 -0.068549 0.107969 -0.055602 0.130819 -0.017296 0.079278 0.087859 -0.064282 -0.095483 0.096476 0.088817 0.183396 -0.115965 0.031093 -0.024165 0.028928 -0.097534 -0.228034 0.067328 0.216522
2 0.166928 0.000253 -0.009093 -0.138783 0.170124 -0.062537 0.134117 0.040867 0.109357 0.106637 0.208459 0.063541 -0.176583 -0.167543 -0.027413 -0.097153 0.041252 0.210869 -0.028324 0.245590 0.077159 0.114194 0.007135 -0.109013 -0.195968 -0.111916 0.015776 0.047998 -0.011653 0.287188 -0.020205 0.018300 0.061467 -0.071978 0.058929 -0.028789 0.012630 -0.065634 0.157375 0.047574 0.007869 -0.051827 0.220435 -0.069108 -0.083887 -0.026211 -0.010683 0.001900 -0.130147 0.049409 -0.072769 -0.021458 0.007606 -0.067113 -0.022100 -0.081988 -0.235294 0.030535 0.086986 -0.167819 -0.011471 0.162855 -0.028491 0.037164 0.011907 0.070157 0.007687 0.067799 0.010308 -0.229974 0.023770 0.173302 0.091442 0.184245 0.099784 -0.051480 -0.087227 -0.173582 -0.023372 0.078754 -0.029909 0.139635 0.083469 -0.067284 0.016326 0.127253 0.112808 0.012780 -0.233129 -0.227018 -0.196297 -0.193759 0.033509 0.003531 -0.096561 0.048904 0.147579 -0.032169 0.041752 -0.078828 -0.006282 0.051621 -0.110334 -0.061625 -0.073307 -0.031162 -0.017997 -0.081383 -0.063933 0.110884 -0.058489 0.152796 -0.004021 0.059878 0.089571 -0.070740 -0.096643 0.098077 0.097542 0.166087 -0.117380 0.035317 -0.023858 -0.004010 -0.098980 -0.259562 0.069013 0.233236
32 0.202558 0.069215 -0.023738 -0.112560 0.182136 -0.094804 0.162820 0.069043 0.073921 0.091359 0.199175 0.081655 -0.231643 -0.196068 -0.031939 -0.113500 0.055474 0.187390 -0.007140 0.232694 0.053853 0.124564 0.014981 -0.091429 -0.176488 -0.113760 0.008596 0.056861 -0.004719 0.284489 0.005695 0.072882 0.064639 -0.037257 0.049558 -0.008230 0.053250 -0.065731 0.123414 0.031016 0.005354 -0.034334 0.234080 -0.064990 -0.054078 -0.016043 -0.040150 0.009360 -0.116539 0.047861 -0.090840 -0.044244 0.046794 -0.083006 -0.047118 -0.103715 -0.281837 0.044105 0.135724 -0.163311 -0.032388 0.143330 -0.066055 0.063490 -0.004622 0.046552 0.015251 0.066862 0.012525 -0.182706 0.037791 0.150301 0.082425 0.174034 0.086985 -0.091914 -0.072938 -0.145700 0.012419 0.040242 -0.020502 0.125138 0.065560 -0.042698 0.037859 0.094767 0.085442 -0.015242 -0.200565 -0.204242 -0.185471 -0.155316 0.037190 0.000456 -0.053712 0.013878 0.102121 -0.041168 0.090148 -0.113445 -0.008651 0.082823 -0.112307 -0.060415 -0.058179 -0.054414 0.011391 -0.052890 -0.071592 0.097461 -0.047358 0.125825 -0.027319 0.095640 0.086237 -0.055431 -0.091077 0.096165 0.085853 0.191927 -0.109171 0.023674 -0.035595 0.064470 -0.086059 -0.197333 0.053273 0.212184
4 0.164310 0.003343 -0.003813 -0.129255 0.159884 -0.058601 0.125245 0.043994 0.098344 0.099647 0.202534 0.065343 -0.164886 -0.164374 -0.026576 -0.095357 0.041379 0.194431 -0.024642 0.230621 0.068896 0.104951 0.002436 -0.103227 -0.183514 -0.099246 0.018824 0.045123 -0.005711 0.274466 -0.018017 0.022319 0.051268 -0.067018 0.057501 -0.028708 0.015072 -0.060914 0.144520 0.040454 0.008219 -0.042354 0.209169 -0.062239 -0.079278 -0.028296 -0.008509 0.003220 -0.117579 0.051164 -0.068180 -0.023308 0.000383 -0.059947 -0.019591 -0.076820 -0.219131 0.030865 0.081956 -0.163083 -0.003387 0.148687 -0.033178 0.034259 0.004905 0.062012 0.012316 0.054401 0.009185 -0.213992 0.019856 0.161178 0.081810 0.167125 0.097206 -0.046827 -0.085013 -0.163769 -0.025384 0.075755 -0.033800 0.129745 0.073059 -0.057363 0.020386 0.119953 0.101453 0.012902 -0.219412 -0.211925 -0.187824 -0.179597 0.032319 0.000465 -0.088100 0.044992 0.133358 -0.031139 0.041562 -0.070692 -0.007102 0.052561 -0.110355 -0.055043 -0.068748 -0.024937 -0.016100 -0.076787 -0.059503 0.105360 -0.046062 0.145094 0.001249 0.056339 0.079992 -0.058357 -0.094367 0.101207 0.089028 0.162288 -0.114236 0.029066 -0.019681 0.003726 -0.100492 -0.243501 0.068201 0.222746
14 0.196403 0.055644 -0.013397 -0.124409 0.182239 -0.084510 0.154869 0.056449 0.081969 0.093872 0.196401 0.077684 -0.217524 -0.194491 -0.028824 -0.107159 0.052382 0.194236 -0.011964 0.238587 0.061043 0.128918 0.007697 -0.100869 -0.177637 -0.109858 0.007482 0.059504 -0.005547 0.285105 -0.001097 0.059474 0.069220 -0.043873 0.053426 -0.010596 0.042482 -0.067368 0.133181 0.035025 0.004221 -0.032981 0.223873 -0.062923 -0.061776 -0.023034 -0.026437 0.002317 -0.122693 0.042821 -0.085479 -0.034314 0.033527 -0.076854 -0.041216 -0.096067 -0.258361 0.035348 0.111107 -0.165349 -0.022004 0.142241 -0.051607 0.060834 -0.005554 0.051568 0.007621 0.059649 0.020433 -0.186809 0.038095 0.155046 0.083735 0.173413 0.091587 -0.074356 -0.070922 -0.146292 0.001596 0.052384 -0.020811 0.124445 0.064827 -0.043110 0.029744 0.105625 0.084389 -0.000935 -0.192435 -0.205262 -0.179271 -0.167916 0.026112 0.002486 -0.067053 0.027375 0.110557 -0.034242 0.077242 -0.099541 -0.006109 0.072971 -0.112551 -0.057591 -0.056230 -0.042553 -0.003620 -0.057427 -0.060936 0.098816 -0.054090 0.125393 -0.014121 0.078609 0.078774 -0.055093 -0.089988 0.097558 0.077886 0.176011 -0.109958 0.028717 -0.029466 0.042644 -0.090309 -0.200420 0.060521 0.201181
24 0.231782 0.143955 -0.026767 -0.082720 0.187274 -0.121100 0.182108 0.083045 0.031101 0.074791 0.173957 0.098220 -0.283110 -0.232795 -0.023965 -0.120059 0.058871 0.166370 0.004304 0.228065 0.036098 0.147286 0.016989 -0.075550 -0.147226 -0.123306 -0.013310 0.085293 0.002045 0.274625 0.037791 0.122129 0.082148 -0.008000 0.050157 0.014689 0.076647 -0.064399 0.094790 0.022592 -0.006201 -0.007295 0.256677 -0.057453 -0.029885 -0.013346 -0.059315 0.002504 -0.109978 0.033999 -0.134329 -0.061413 0.089394 -0.106138 -0.081170 -0.137701 -0.324624 0.047867 0.182798 -0.155703 -0.053002 0.128314 -0.091937 0.115016 -0.018172 0.029859 0.014205 0.062166 0.027954 -0.132462 0.051339 0.132567 0.068328 0.173555 0.077934 -0.131928 -0.048746 -0.123290 0.049181 0.020242 -0.006452 0.117162 0.047470 -0.010215 0.046299 0.076128 0.065124 -0.042116 -0.154872 -0.199066 -0.173792 -0.147552 0.032020 0.009057 -0.030647 -0.016236 0.065433 -0.052480 0.149843 -0.142401 -0.019702 0.115257 -0.117808 -0.053538 -0.031798 -0.081189 0.023592 -0.022387 -0.079643 0.092179 -0.059183 0.107051 -0.051949 0.126166 0.091281 -0.049359 -0.091312 0.094587 0.071806 0.224973 -0.104735 0.019036 -0.052705 0.118323 -0.078380 -0.147230 0.046113 0.192157
8 0.176194 0.021068 -0.013478 -0.133648 0.172222 -0.071851 0.137327 0.047705 0.095029 0.098873 0.201181 0.067772 -0.183113 -0.174127 -0.032428 -0.099257 0.042050 0.206958 -0.018488 0.237627 0.072574 0.117754 0.010575 -0.107664 -0.193512 -0.110394 0.021223 0.046619 -0.003903 0.286682 -0.015329 0.026671 0.056151 -0.064013 0.058415 -0.024475 0.026954 -0.060659 0.149670 0.045261 0.006884 -0.041668 0.223127 -0.069354 -0.072304 -0.027073 -0.013081 0.005844 -0.123889 0.051447 -0.069688 -0.027038 0.009709 -0.066342 -0.025881 -0.082389 -0.239227 0.029694 0.092879 -0.164808 -0.013867 0.159253 -0.036318 0.038836 0.008528 0.063572 0.008834 0.068367 0.011054 -0.216451 0.030130 0.160735 0.086337 0.168777 0.098897 -0.059539 -0.089316 -0.166707 -0.013894 0.071740 -0.028844 0.135805 0.079623 -0.058084 0.020894 0.113728 0.102678 0.008683 -0.217181 -0.212597 -0.184480 -0.177015 0.028132 0.004864 -0.079335 0.047891 0.132500 -0.027421 0.049873 -0.085138 -0.002285 0.057163 -0.113348 -0.055497 -0.067842 -0.027262 -0.009369 -0.081053 -0.056596 0.104319 -0.051826 0.143639 -0.006858 0.066087 0.083271 -0.058481 -0.098125 0.097269 0.090721 0.162501 -0.115352 0.031634 -0.024996 0.011383 -0.096283 -0.236685 0.063422 0.218433
28 0.201655 0.092634 -0.019450 -0.095486 0.176398 -0.096908 0.162270 0.063042 0.054427 0.078692 0.182281 0.086502 -0.237507 -0.201939 -0.023090 -0.107450 0.048334 0.173037 -0.002171 0.225277 0.047158 0.133302 0.014009 -0.084959 -0.158355 -0.110676 -0.005826 0.066432 -0.002978 0.262753 0.017877 0.082017 0.070850 -0.027238 0.049525 0.000512 0.056275 -0.062349 0.104739 0.028151 -0.002172 -0.021447 0.231423 -0.058598 -0.038707 -0.012572 -0.038382 0.005690 -0.114188 0.041832 -0.098731 -0.046064 0.056335 -0.086051 -0.052971 -0.113682 -0.281616 0.044504 0.145024 -0.152000 -0.035613 0.133287 -0.069030 0.078622 -0.005817 0.043150 0.010972 0.059676 0.025940 -0.160142 0.038420 0.135360 0.067968 0.164681 0.080695 -0.102931 -0.063592 -0.133655 0.020663 0.035237 -0.014751 0.121689 0.058625 -0.025301 0.040064 0.083995 0.080369 -0.021051 -0.174381 -0.194292 -0.171243 -0.148228 0.033407 0.007084 -0.047457 0.002858 0.090372 -0.038423 0.109159 -0.111774 -0.011072 0.092354 -0.109050 -0.055026 -0.045962 -0.062723 0.010367 -0.037911 -0.073096 0.095862 -0.052621 0.114374 -0.036909 0.098901 0.083718 -0.048241 -0.093724 0.092409 0.078769 0.194062 -0.100997 0.018056 -0.042941 0.078274 -0.079875 -0.169684 0.048744 0.191042
7 0.121064 -0.105387 -0.012202 -0.180822 0.137568 -0.018482 0.085687 0.023875 0.164617 0.104110 0.226940 0.044939 -0.059393 -0.089230 -0.071722 -0.071836 0.026975 0.231822 -0.048294 0.234904 0.100373 0.056703 0.012439 -0.122531 -0.231459 -0.079314 0.079773 -0.019209 -0.009720 0.310853 -0.067720 -0.068645 0.016489 -0.119612 0.045514 -0.061963 -0.005312 -0.046189 0.191238 0.054268 0.029562 -0.088516 0.175018 -0.081727 -0.112954 -0.039330 0.015446 0.024853 -0.112358 0.054387 0.013109 0.009801 -0.072710 -0.033442 0.054589 -0.005359 -0.145614 0.015510 0.002210 -0.170401 0.036589 0.172542 0.009931 -0.057702 0.039435 0.084224 0.023557 0.074467 -0.033992 -0.315027 0.016535 0.180964 0.113381 0.142312 0.116482 0.013573 -0.138266 -0.194836 -0.078765 0.110808 -0.070674 0.145020 0.106886 -0.125329 0.001877 0.127393 0.129454 0.040065 -0.282072 -0.200729 -0.187559 -0.182007 0.039895 -0.013967 -0.098166 0.109338 0.197581 0.007333 -0.083586 -0.023991 0.022642 -0.013914 -0.106093 -0.058551 -0.122039 0.039104 -0.025152 -0.140729 -0.041664 0.098042 -0.039217 0.169955 0.031666 -0.002109 0.055241 -0.069121 -0.083474 0.094811 0.107201 0.087715 -0.114557 0.031990 0.016691 -0.096199 -0.101422 -0.329611 0.081048 0.232519
6 0.107051 -0.137270 -0.017070 -0.194647 0.126047 -0.013326 0.075807 0.017208 0.178106 0.097387 0.232112 0.042410 -0.035738 -0.071320 -0.080988 -0.070382 0.017881 0.234071 -0.063173 0.236018 0.108506 0.043453 0.018740 -0.122121 -0.247669 -0.082025 0.086835 -0.033741 -0.017257 0.316868 -0.078696 -0.096257 0.004500 -0.134247 0.045504 -0.063845 -0.014019 -0.054170 0.198122 0.055970 0.032866 -0.103268 0.169451 -0.087699 -0.117658 -0.040068 0.018681 0.025190 -0.110131 0.051612 0.031883 0.015461 -0.089575 -0.018735 0.067210 0.015129 -0.124742 0.010643 -0.022038 -0.164478 0.052184 0.188238 0.018644 -0.074891 0.048931 0.085303 0.024671 0.082425 -0.041119 -0.338111 0.016173 0.180924 0.124280 0.141507 0.127148 0.020066 -0.148812 -0.203784 -0.099476 0.120947 -0.083844 0.149826 0.115035 -0.135633 -0.003946 0.132087 0.141961 0.048059 -0.299434 -0.201313 -0.194431 -0.177770 0.042210 -0.021338 -0.109715 0.120772 0.208292 0.010587 -0.112324 -0.004451 0.020113 -0.031357 -0.099795 -0.055679 -0.125923 0.054268 -0.026774 -0.155089 -0.029616 0.092287 -0.035322 0.174494 0.040101 -0.016359 0.053897 -0.076172 -0.089718 0.092861 0.110760 0.068147 -0.117072 0.029421 0.021702 -0.128927 -0.098013 -0.354371 0.090638 0.244010
9 0.183503 0.049230 -0.021008 -0.124408 0.171400 -0.080660 0.147721 0.057293 0.082358 0.089990 0.189520 0.067790 -0.205523 -0.183389 -0.030842 -0.106868 0.047235 0.190136 -0.010206 0.229211 0.057336 0.119340 0.012486 -0.093464 -0.171952 -0.106084 0.015757 0.054218 -0.007438 0.274966 0.004808 0.052569 0.060822 -0.042838 0.056082 -0.011537 0.040968 -0.062876 0.135507 0.035825 0.006389 -0.035937 0.222168 -0.057787 -0.061136 -0.019935 -0.024409 0.001119 -0.115619 0.041531 -0.085483 -0.034151 0.033011 -0.071821 -0.033118 -0.091043 -0.253842 0.032504 0.115365 -0.162098 -0.024217 0.147170 -0.055861 0.053665 -0.002304 0.043679 0.013295 0.061826 0.010614 -0.188954 0.032775 0.145782 0.082461 0.170893 0.085071 -0.077988 -0.068669 -0.146257 -0.001435 0.051393 -0.024247 0.118701 0.070312 -0.048728 0.025442 0.103028 0.083533 -0.008482 -0.190450 -0.191396 -0.167291 -0.159163 0.028015 0.001768 -0.063407 0.023313 0.100427 -0.034111 0.067560 -0.091413 -0.005427 0.063398 -0.100979 -0.054369 -0.053267 -0.041348 0.006799 -0.054164 -0.061758 0.098466 -0.045261 0.116963 -0.018765 0.077599 0.079670 -0.052538 -0.090122 0.095726 0.075812 0.167775 -0.106493 0.025178 -0.024455 0.035978 -0.090293 -0.198211 0.060208 0.199715
30 0.232520 0.129294 -0.030533 -0.091075 0.192595 -0.117554 0.183742 0.078286 0.031512 0.076479 0.178373 0.097356 -0.280311 -0.231132 -0.020204 -0.124689 0.058091 0.177725 0.009490 0.230580 0.042450 0.152603 0.013582 -0.080404 -0.153644 -0.122305 -0.015515 0.080245 -0.003379 0.280410 0.039107 0.118784 0.085578 -0.014216 0.057759 0.015689 0.074236 -0.068838 0.101338 0.026294 -0.005282 -0.014175 0.256587 -0.058394 -0.030209 -0.007857 -0.052816 -0.002396 -0.112277 0.034319 -0.129084 -0.054913 0.085592 -0.106893 -0.080290 -0.131777 -0.321135 0.047679 0.174146 -0.153806 -0.052904 0.133229 -0.094163 0.110293 -0.013643 0.029773 0.007309 0.064913 0.026633 -0.137843 0.046591 0.130577 0.072273 0.179745 0.077833 -0.129092 -0.051733 -0.124718 0.039422 0.017885 -0.006792 0.108364 0.053290 -0.011713 0.049538 0.077750 0.070919 -0.038198 -0.150172 -0.194837 -0.169613 -0.140219 0.028357 0.006214 -0.029400 -0.019115 0.057732 -0.052775 0.138785 -0.130745 -0.013907 0.108216 -0.113805 -0.056001 -0.032192 -0.075649 0.025476 -0.020254 -0.069729 0.089467 -0.051609 0.107018 -0.047984 0.118314 0.085565 -0.043036 -0.094946 0.093804 0.065304 0.210978 -0.103079 0.011358 -0.047810 0.114308 -0.072291 -0.143733 0.047046 0.185758
25 0.205087 0.117476 -0.017287 -0.084640 0.181187 -0.107415 0.169902 0.074031 0.040874 0.077365 0.170537 0.090445 -0.255519 -0.209664 -0.018961 -0.108726 0.056724 0.168175 -0.002481 0.219083 0.038355 0.132410 0.010650 -0.073441 -0.143501 -0.118207 -0.014652 0.068792 0.003249 0.257483 0.026180 0.100954 0.080171 -0.017470 0.049657 0.010562 0.060518 -0.064188 0.090925 0.022975 -0.009599 -0.010247 0.236531 -0.054755 -0.029161 -0.012265 -0.047776 0.005678 -0.113404 0.043903 -0.114364 -0.055390 0.069187 -0.093355 -0.067073 -0.121767 -0.294546 0.045481 0.161106 -0.148052 -0.045069 0.124635 -0.080702 0.088105 -0.012853 0.035843 0.014772 0.061360 0.024692 -0.141345 0.038569 0.130534 0.067652 0.167116 0.072622 -0.112404 -0.050681 -0.129267 0.037890 0.023166 -0.013301 0.115990 0.054200 -0.014045 0.038927 0.078448 0.074352 -0.027083 -0.167335 -0.192607 -0.172222 -0.139501 0.034033 0.007784 -0.041744 -0.006918 0.076577 -0.043074 0.130339 -0.129145 -0.011201 0.100183 -0.108287 -0.050652 -0.038598 -0.069610 0.012012 -0.032691 -0.076039 0.088876 -0.049193 0.105643 -0.045756 0.114503 0.083276 -0.052280 -0.086380 0.092946 0.075593 0.208665 -0.098641 0.016857 -0.047577 0.099586 -0.072456 -0.159205 0.043242 0.190606
29 0.191554 0.069412 -0.019033 -0.110991 0.174598 -0.082879 0.154866 0.061255 0.066701 0.090528 0.191019 0.075334 -0.222804 -0.191936 -0.022658 -0.110193 0.049633 0.190047 -0.006331 0.227242 0.055039 0.122749 0.013998 -0.090898 -0.169711 -0.112940 0.007569 0.057940 -0.003010 0.271365 0.012722 0.067898 0.068312 -0.038326 0.052450 -0.002357 0.039306 -0.062338 0.123058 0.037462 0.004424 -0.026700 0.228076 -0.058498 -0.053525 -0.015661 -0.028485 -0.002842 -0.117398 0.047339 -0.093339 -0.040819 0.040590 -0.076358 -0.047520 -0.102921 -0.266552 0.032592 0.131579 -0.158656 -0.031712 0.141304 -0.059273 0.073703 -0.000495 0.046736 0.008954 0.060669 0.019106 -0.175439 0.036650 0.150325 0.077183 0.169185 0.084558 -0.093645 -0.072130 -0.148121 0.009665 0.053246 -0.023031 0.126748 0.062953 -0.035467 0.033357 0.100569 0.089775 -0.012664 -0.190855 -0.203457 -0.178152 -0.165526 0.027212 0.003717 -0.061960 0.019460 0.099837 -0.040094 0.087878 -0.102316 -0.007384 0.080326 -0.112222 -0.057430 -0.054300 -0.050441 0.008890 -0.052549 -0.067478 0.099829 -0.053631 0.124372 -0.021024 0.091568 0.086182 -0.053479 -0.089969 0.095462 0.083471 0.189319 -0.109705 0.025000 -0.034220 0.055081 -0.085138 -0.194746 0.053355 0.205226
31 0.205720 0.095888 -0.016042 -0.100959 0.177108 -0.096762 0.161986 0.066445 0.053202 0.088039 0.185503 0.080230 -0.246674 -0.209496 -0.018396 -0.110964 0.053197 0.183963 0.001303 0.228509 0.050815 0.142241 0.012329 -0.086835 -0.161210 -0.116873 -0.006207 0.071004 -0.001077 0.269794 0.022295 0.089845 0.078212 -0.024905 0.058669 0.000576 0.047729 -0.067634 0.115606 0.030930 -0.001532 -0.018950 0.234787 -0.059745 -0.048396 -0.015863 -0.038743 -0.002189 -0.112343 0.038781 -0.113578 -0.042650 0.058177 -0.086313 -0.057292 -0.117263 -0.286096 0.041862 0.140274 -0.156925 -0.039799 0.138727 -0.067360 0.087805 -0.009383 0.041628 0.004528 0.054238 0.024305 -0.158411 0.041936 0.136488 0.070159 0.173662 0.079976 -0.099859 -0.051379 -0.131884 0.017477 0.035882 -0.009912 0.111566 0.055496 -0.019916 0.031418 0.095676 0.075373 -0.015263 -0.163631 -0.198698 -0.167442 -0.155001 0.023921 0.007216 -0.049060 0.004315 0.078082 -0.047649 0.112903 -0.115130 -0.018307 0.087890 -0.108725 -0.055940 -0.038952 -0.068079 0.008378 -0.036204 -0.068101 0.100841 -0.054663 0.111689 -0.025677 0.101355 0.084409 -0.050735 -0.093811 0.096564 0.072372 0.197267 -0.105289 0.016513 -0.038531 0.079480 -0.084102 -0.163230 0.056881 0.195428
26 0.205820 0.087867 -0.020788 -0.108035 0.179278 -0.097888 0.163233 0.065702 0.059938 0.081688 0.189045 0.088429 -0.235127 -0.196931 -0.032336 -0.109120 0.053731 0.186997 -0.006645 0.232674 0.054695 0.129877 0.012713 -0.088977 -0.167222 -0.117153 0.005012 0.062854 -0.001403 0.278366 0.017242 0.080956 0.067302 -0.032738 0.051527 -0.001064 0.051309 -0.061379 0.116406 0.027963 -0.001561 -0.029836 0.242957 -0.066553 -0.041261 -0.019762 -0.037216 0.009703 -0.118460 0.046980 -0.096557 -0.051276 0.050248 -0.091711 -0.050170 -0.105548 -0.287385 0.042057 0.146574 -0.162134 -0.036071 0.141429 -0.066777 0.072656 -0.001810 0.044577 0.012225 0.066955 0.015113 -0.182125 0.036383 0.148337 0.075126 0.168811 0.084302 -0.104117 -0.074726 -0.148371 0.021603 0.039439 -0.023951 0.132598 0.062997 -0.036149 0.043826 0.091872 0.090600 -0.023953 -0.194545 -0.206009 -0.185856 -0.152950 0.038429 0.003535 -0.051781 0.011457 0.096499 -0.033541 0.099800 -0.116347 -0.011641 0.088371 -0.111648 -0.053029 -0.054820 -0.057630 0.010720 -0.054250 -0.066545 0.093661 -0.052799 0.127314 -0.038087 0.098627 0.084529 -0.054852 -0.095572 0.098549 0.081379 0.198750 -0.109258 0.021122 -0.039233 0.071923 -0.083762 -0.191928 0.049234 0.209081
20 0.177479 0.036202 -0.015133 -0.125208 0.168008 -0.070163 0.140514 0.054099 0.082068 0.089780 0.193986 0.075260 -0.195696 -0.175794 -0.030969 -0.099868 0.048532 0.187769 -0.015707 0.227684 0.064075 0.116980 0.011144 -0.094182 -0.179413 -0.102393 0.019370 0.049149 -0.003813 0.278633 -0.002749 0.045249 0.061803 -0.052013 0.054492 -0.019534 0.033014 -0.061433 0.138478 0.034484 0.004410 -0.039608 0.220677 -0.060494 -0.066080 -0.024565 -0.022971 0.009138 -0.113860 0.040627 -0.077316 -0.028337 0.022235 -0.072238 -0.032998 -0.087394 -0.242614 0.035738 0.102686 -0.159854 -0.016431 0.145863 -0.045432 0.051969 -0.000073 0.055603 0.014343 0.061470 0.008652 -0.199782 0.033967 0.146307 0.077271 0.171021 0.093273 -0.067017 -0.073355 -0.154715 -0.006269 0.056469 -0.025984 0.118929 0.071810 -0.048180 0.028976 0.107942 0.093299 -0.005093 -0.195875 -0.202643 -0.173364 -0.165515 0.033074 -0.001753 -0.064214 0.036631 0.115834 -0.032457 0.057152 -0.083613 -0.005191 0.060347 -0.110347 -0.055460 -0.057055 -0.038742 -0.000129 -0.061773 -0.065176 0.094932 -0.051992 0.128789 -0.012406 0.072382 0.081950 -0.055963 -0.093958 0.091688 0.078384 0.168644 -0.110066 0.025316 -0.025995 0.031556 -0.088057 -0.212281 0.064790 0.200577
11 0.140127 -0.063490 -0.011630 -0.159789 0.149625 -0.036577 0.107488 0.034355 0.140394 0.095474 0.217591 0.056973 -0.095531 -0.111141 -0.063129 -0.077385 0.028673 0.221404 -0.040443 0.234861 0.091959 0.076346 0.016022 -0.115925 -0.219445 -0.089381 0.060781 -0.004958 -0.010323 0.297315 -0.051322 -0.035251 0.026716 -0.101502 0.040249 -0.048887 0.010297 -0.049852 0.175000 0.051475 0.022342 -0.070759 0.190050 -0.076431 -0.090805 -0.029221 0.003150 0.024170 -0.114873 0.053484 -0.006950 -0.003396 -0.042526 -0.038170 0.033694 -0.024029 -0.170724 0.021325 0.030209 -0.164168 0.024532 0.167204 -0.009367 -0.029040 0.029440 0.076467 0.013100 0.072167 -0.015013 -0.278014 0.022673 0.168638 0.106567 0.146081 0.109434 -0.010744 -0.117779 -0.179513 -0.061060 0.091041 -0.057501 0.138543 0.092612 -0.097536 0.015124 0.120099 0.113864 0.028056 -0.253384 -0.192298 -0.179977 -0.165770 0.033638 -0.012793 -0.084113 0.086891 0.171702 0.000543 -0.045343 -0.038801 0.011408 0.003167 -0.099833 -0.060297 -0.098873 0.016758 -0.021602 -0.121226 -0.040977 0.094151 -0.038828 0.156572 0.012227 0.023904 0.060392 -0.062318 -0.088610 0.090444 0.100206 0.110769 -0.112003 0.033947 0.007180 -0.064258 -0.087590 -0.291689 0.075977 0.221430
5 0.115528 -0.116768 -0.015914 -0.183444 0.132954 -0.020064 0.086471 0.026398 0.169419 0.099235 0.227419 0.042803 -0.053269 -0.081939 -0.068180 -0.072969 0.020265 0.231142 -0.053575 0.237252 0.102218 0.050588 0.018965 -0.125490 -0.238213 -0.081537 0.078771 -0.021735 -0.010911 0.308075 -0.066864 -0.076621 0.012656 -0.130163 0.040512 -0.066022 -0.007085 -0.052622 0.189721 0.057017 0.031872 -0.096464 0.176757 -0.082563 -0.111652 -0.036635 0.018052 0.030581 -0.118176 0.050551 0.017393 0.006164 -0.071490 -0.027238 0.054960 0.002140 -0.139326 0.022451 -0.000552 -0.164208 0.037761 0.184279 0.007377 -0.062085 0.038377 0.085501 0.017701 0.083050 -0.035317 -0.317910 0.013853 0.177717 0.112416 0.149907 0.124831 0.014709 -0.138613 -0.195635 -0.091548 0.112364 -0.071236 0.154195 0.104943 -0.126856 0.003137 0.133842 0.136628 0.044555 -0.291085 -0.203618 -0.192816 -0.180373 0.036213 -0.018124 -0.105605 0.110574 0.203985 0.008870 -0.090156 -0.012168 0.020064 -0.021458 -0.100756 -0.060700 -0.122194 0.044148 -0.030298 -0.146593 -0.034735 0.096403 -0.043156 0.171968 0.025354 -0.001492 0.054626 -0.068929 -0.092390 0.086547 0.111702 0.088001 -0.119103 0.034658 0.015473 -0.106516 -0.100493 -0.337837 0.078511 0.238228
13 0.156126 -0.002333 -0.008173 -0.140382 0.160581 -0.058317 0.129807 0.040536 0.103392 0.102013 0.203401 0.064703 -0.161163 -0.159951 -0.031144 -0.089336 0.039497 0.206778 -0.025676 0.233266 0.073567 0.106147 0.005178 -0.107870 -0.189989 -0.098433 0.024060 0.032372 -0.010782 0.281616 -0.020508 0.010580 0.053726 -0.067703 0.052474 -0.031652 0.015898 -0.059209 0.152964 0.043922 0.008381 -0.049432 0.204605 -0.069697 -0.079604 -0.023391 -0.011146 0.003093 -0.120861 0.052931 -0.054175 -0.016506 -0.003957 -0.056891 -0.009286 -0.065044 -0.216209 0.024833 0.068346 -0.162586 -0.007665 0.157874 -0.024662 0.022994 0.010665 0.063393 0.007004 0.062717 0.003123 -0.228534 0.022537 0.164786 0.092141 0.166078 0.097444 -0.042091 -0.091168 -0.160552 -0.030240 0.072904 -0.037613 0.130397 0.078554 -0.068518 0.014356 0.117630 0.107012 0.016630 -0.217635 -0.208301 -0.178345 -0.180419 0.029053 0.003465 -0.080427 0.053833 0.140926 -0.021848 0.028047 -0.065381 -0.006740 0.042850 -0.109271 -0.055644 -0.070363 -0.022730 -0.016395 -0.084277 -0.052706 0.100129 -0.052133 0.142294 0.006288 0.054735 0.072484 -0.067635 -0.088294 0.097141 0.084624 0.148712 -0.107870 0.028370 -0.011800 -0.006168 -0.093137 -0.244352 0.066630 0.209810
10 0.193123 0.057465 -0.023302 -0.116572 0.174023 -0.079461 0.144219 0.054515 0.072762 0.091420 0.185394 0.077320 -0.207984 -0.187589 -0.035147 -0.103302 0.052345 0.190459 -0.008515 0.227050 0.055159 0.123102 0.013143 -0.090162 -0.174312 -0.109007 0.017826 0.055723 -0.008460 0.276774 0.003716 0.056590 0.063558 -0.045987 0.050021 -0.012388 0.045186 -0.066019 0.133305 0.034029 0.003066 -0.037951 0.227894 -0.061432 -0.056758 -0.015751 -0.029340 0.006885 -0.112087 0.038492 -0.086834 -0.034297 0.037750 -0.077020 -0.035592 -0.097364 -0.260264 0.038304 0.118397 -0.156142 -0.022341 0.147195 -0.059974 0.062739 0.003599 0.040214 0.008784 0.065701 0.014225 -0.186814 0.036067 0.144145 0.077101 0.171989 0.087396 -0.080680 -0.073178 -0.145740 0.001165 0.044689 -0.024252 0.118878 0.065748 -0.044293 0.029386 0.096212 0.083652 -0.007120 -0.188840 -0.190708 -0.168099 -0.154827 0.028618 0.001729 -0.056769 0.023419 0.103788 -0.037485 0.073914 -0.092584 -0.007485 0.069694 -0.104547 -0.058245 -0.053717 -0.043812 0.004444 -0.055752 -0.067362 0.097247 -0.052539 0.123571 -0.022188 0.078601 0.079743 -0.055199 -0.086725 0.091138 0.081116 0.173935 -0.111418 0.019455 -0.029422 0.039118 -0.090655 -0.202163 0.064225 0.204958
18 0.164410 -0.005175 -0.008347 -0.141557 0.160912 -0.055301 0.128608 0.043085 0.106038 0.093556 0.200950 0.060240 -0.155628 -0.153621 -0.035161 -0.092467 0.042758 0.203266 -0.023276 0.230184 0.073596 0.103266 0.007209 -0.108405 -0.193108 -0.101420 0.029525 0.029210 -0.010379 0.280527 -0.026618 0.006371 0.051797 -0.076159 0.056450 -0.030860 0.020154 -0.061685 0.156478 0.042430 0.014102 -0.050752 0.209505 -0.070553 -0.076991 -0.026718 -0.013340 0.005862 -0.115927 0.044449 -0.055269 -0.020686 -0.004401 -0.056362 -0.007298 -0.063873 -0.215725 0.032798 0.068992 -0.160482 0.001696 0.157106 -0.026960 0.022259 0.008163 0.066999 0.015390 0.064543 -0.000044 -0.230203 0.023223 0.155386 0.087025 0.165861 0.102298 -0.043957 -0.087336 -0.160637 -0.034435 0.072882 -0.040364 0.131224 0.081330 -0.071164 0.019279 0.114092 0.099950 0.014928 -0.222050 -0.207184 -0.182314 -0.175715 0.027411 -0.004411 -0.077935 0.058708 0.141563 -0.022601 0.024503 -0.064356 -0.002400 0.038431 -0.104275 -0.057605 -0.073265 -0.016127 -0.013656 -0.087235 -0.052338 0.103571 -0.044008 0.145550 0.000876 0.052665 0.072902 -0.056624 -0.089925 0.094292 0.090113 0.149533 -0.112127 0.027784 -0.010923 -0.012900 -0.093227 -0.249508 0.070118 0.218754
19 0.180201 0.023754 -0.017139 -0.131558 0.165498 -0.069925 0.139885 0.052487 0.087617 0.094591 0.197833 0.072050 -0.187103 -0.169178 -0.036812 -0.100116 0.045120 0.197761 -0.020112 0.231566 0.061132 0.112427 0.009460 -0.096337 -0.185706 -0.108115 0.016911 0.040802 -0.008459 0.286192 -0.009680 0.032629 0.058004 -0.058299 0.053016 -0.015994 0.030376 -0.058813 0.142640 0.039309 0.004558 -0.045730 0.216846 -0.063382 -0.070456 -0.022633 -0.025087 0.007870 -0.115110 0.047058 -0.075355 -0.026508 0.019746 -0.072438 -0.027566 -0.079877 -0.242429 0.034265 0.095137 -0.160184 -0.012844 0.147577 -0.046131 0.044045 0.009215 0.055347 0.014925 0.067262 0.003685 -0.207632 0.034626 0.155512 0.083546 0.171515 0.093950 -0.065783 -0.076759 -0.150570 -0.016378 0.060039 -0.028739 0.120087 0.075897 -0.054111 0.021484 0.106057 0.094300 0.000140 -0.207545 -0.204021 -0.177422 -0.167358 0.029775 0.002822 -0.072322 0.035438 0.121269 -0.033631 0.050242 -0.083501 -0.006154 0.060001 -0.107411 -0.059883 -0.064727 -0.034404 0.000387 -0.068862 -0.060786 0.099508 -0.051939 0.133388 -0.007971 0.069606 0.080924 -0.061345 -0.093456 0.094677 0.081289 0.162664 -0.114270 0.021606 -0.022664 0.019132 -0.090106 -0.227588 0.066566 0.210333
17 0.123849 -0.115545 -0.020865 -0.180660 0.137445 -0.014313 0.086780 0.022541 0.165346 0.100519 0.230286 0.046704 -0.058927 -0.083563 -0.076507 -0.069290 0.020539 0.229573 -0.055638 0.235719 0.098929 0.046229 0.018776 -0.122860 -0.239046 -0.081566 0.083819 -0.026913 -0.017248 0.311461 -0.070141 -0.079892 0.011672 -0.128720 0.041095 -0.063580 -0.006411 -0.052816 0.193233 0.053162 0.030713 -0.097099 0.170801 -0.079612 -0.108099 -0.031964 0.016235 0.032864 -0.107449 0.056665 0.024178 0.011899 -0.076277 -0.027620 0.060964 0.005862 -0.142905 0.020699 -0.006079 -0.164262 0.041768 0.182586 0.008761 -0.060126 0.044458 0.081030 0.021148 0.082383 -0.034434 -0.319816 0.016465 0.180421 0.120849 0.145976 0.119767 0.011433 -0.140308 -0.187770 -0.088574 0.106026 -0.074445 0.149537 0.107513 -0.127980 0.007507 0.124816 0.133083 0.039331 -0.285287 -0.194315 -0.189469 -0.172216 0.034911 -0.018898 -0.103348 0.116012 0.200171 0.007531 -0.098309 -0.016553 0.023309 -0.021711 -0.106248 -0.060263 -0.119717 0.048826 -0.020785 -0.145930 -0.038702 0.085357 -0.038232 0.168793 0.031268 -0.004460 0.047227 -0.071910 -0.082946 0.085575 0.101350 0.075613 -0.113663 0.032572 0.020585 -0.107394 -0.096478 -0.332189 0.079595 0.227600
22 0.152509 -0.020693 -0.007750 -0.148034 0.153466 -0.050943 0.120450 0.038711 0.113911 0.097829 0.207581 0.060997 -0.146353 -0.143363 -0.038409 -0.091799 0.035641 0.208688 -0.032773 0.235118 0.081453 0.092395 0.011994 -0.109430 -0.201172 -0.098731 0.030351 0.033118 -0.010230 0.283484 -0.027546 -0.001372 0.042375 -0.076621 0.053651 -0.036699 0.013613 -0.059750 0.160770 0.049585 0.016684 -0.055655 0.203342 -0.070043 -0.082680 -0.030422 -0.005785 0.006275 -0.119876 0.048685 -0.050502 -0.019753 -0.007583 -0.053003 -0.004974 -0.059507 -0.209529 0.030030 0.064393 -0.158656 0.002056 0.161158 -0.026190 0.012275 0.011320 0.066144 0.009458 0.064939 -0.003264 -0.242386 0.020305 0.165951 0.088711 0.166679 0.106084 -0.037472 -0.094135 -0.166016 -0.038581 0.082148 -0.042032 0.133338 0.080399 -0.071854 0.014099 0.120811 0.107012 0.020743 -0.228302 -0.205569 -0.183216 -0.177372 0.033431 -0.001163 -0.086747 0.061508 0.147084 -0.018408 0.015411 -0.060866 0.000856 0.036763 -0.105628 -0.055454 -0.084023 -0.011890 -0.012821 -0.094424 -0.049390 0.105168 -0.046173 0.146134 0.000431 0.047527 0.076656 -0.064731 -0.094950 0.098268 0.093039 0.145125 -0.114706 0.033812 -0.007805 -0.020514 -0.094313 -0.259754 0.069016 0.218034
23 0.220398 0.102121 -0.023979 -0.100527 0.184560 -0.104284 0.173241 0.069189 0.048663 0.088816 0.182360 0.090150 -0.261383 -0.218399 -0.024101 -0.122183 0.059454 0.181122 -0.002269 0.230103 0.047872 0.137403 0.011432 -0.085454 -0.166356 -0.120604 -0.002007 0.069843 -0.002335 0.281297 0.023143 0.098703 0.081380 -0.019727 0.054909 0.003947 0.062765 -0.069990 0.113585 0.023500 0.000418 -0.022930 0.247649 -0.054721 -0.042416 -0.012037 -0.044742 0.002946 -0.114750 0.038248 -0.117126 -0.050784 0.069013 -0.094333 -0.065430 -0.121811 -0.300453 0.041207 0.157987 -0.159410 -0.038475 0.137947 -0.077984 0.094296 -0.012069 0.037339 0.012137 0.059459 0.026111 -0.163433 0.044313 0.144261 0.076068 0.182225 0.079583 -0.110238 -0.058186 -0.136234 0.029176 0.031390 -0.017918 0.118103 0.058601 -0.025533 0.039803 0.088248 0.079768 -0.024744 -0.172368 -0.197901 -0.174746 -0.154083 0.033876 0.003290 -0.045057 0.002658 0.084800 -0.044380 0.112617 -0.124503 -0.012043 0.096582 -0.117542 -0.061089 -0.040690 -0.065271 0.014823 -0.034977 -0.076203 0.097001 -0.052489 0.116244 -0.039884 0.108958 0.085907 -0.058164 -0.089904 0.103146 0.077835 0.207083 -0.114077 0.019078 -0.042234 0.083992 -0.079828 -0.176844 0.054003 0.199846
21 0.202435 0.070264 -0.025653 -0.110431 0.175832 -0.091593 0.156908 0.063356 0.069928 0.091380 0.186448 0.077346 -0.226250 -0.194016 -0.034675 -0.112380 0.054381 0.188715 -0.009340 0.225143 0.049857 0.126971 0.009684 -0.083967 -0.174842 -0.110515 0.010384 0.056237 -0.005906 0.278803 0.008623 0.071455 0.068829 -0.037855 0.055303 -0.007845 0.048061 -0.063237 0.122150 0.029237 0.005498 -0.035520 0.226040 -0.057439 -0.056955 -0.015997 -0.038351 0.000365 -0.108925 0.042501 -0.094936 -0.041995 0.048664 -0.084097 -0.046469 -0.102746 -0.270316 0.038986 0.130267 -0.161201 -0.029223 0.137266 -0.066684 0.064244 -0.003761 0.038113 0.011763 0.057306 0.019434 -0.179179 0.036888 0.147689 0.079476 0.172603 0.085890 -0.089238 -0.059641 -0.142101 0.007589 0.040806 -0.022217 0.116621 0.062367 -0.037564 0.032321 0.096160 0.083146 -0.010164 -0.185096 -0.193775 -0.165851 -0.153224 0.031734 0.002668 -0.052025 0.014293 0.095664 -0.042011 0.082537 -0.104707 -0.006720 0.077652 -0.110024 -0.053783 -0.053926 -0.048295 0.013091 -0.048933 -0.060922 0.094577 -0.044380 0.115172 -0.021982 0.082537 0.076897 -0.052016 -0.091051 0.093008 0.074250 0.179851 -0.103935 0.020667 -0.032158 0.055448 -0.081986 -0.188421 0.059790 0.198801
27 0.208033 0.080437 -0.020469 -0.118380 0.182173 -0.092442 0.164472 0.066823 0.067825 0.087826 0.195205 0.080876 -0.238180 -0.206636 -0.034907 -0.116227 0.057838 0.193450 -0.005436 0.237104 0.052309 0.130616 0.013312 -0.096606 -0.178501 -0.120621 0.013236 0.060001 -0.006418 0.296567 0.015274 0.079188 0.075116 -0.038949 0.058170 -0.002447 0.053888 -0.063619 0.128815 0.036248 0.002634 -0.030677 0.248381 -0.062140 -0.050916 -0.017447 -0.036311 0.000068 -0.114047 0.038492 -0.101074 -0.045192 0.049163 -0.087086 -0.053980 -0.109080 -0.288896 0.037339 0.142286 -0.166454 -0.029446 0.150732 -0.073919 0.076656 -0.003479 0.041659 0.013855 0.063131 0.016339 -0.190267 0.047067 0.155304 0.080040 0.178307 0.088318 -0.102152 -0.073811 -0.151787 0.012199 0.045773 -0.021960 0.127234 0.064935 -0.037237 0.034173 0.095798 0.086273 -0.016365 -0.190076 -0.209113 -0.179511 -0.165993 0.034852 0.007888 -0.052537 0.017023 0.096768 -0.040572 0.093695 -0.108649 -0.013978 0.083753 -0.111956 -0.061193 -0.056224 -0.056991 0.010723 -0.048642 -0.069757 0.103410 -0.054221 0.123327 -0.028541 0.095246 0.091315 -0.057091 -0.098332 0.102301 0.079311 0.199358 -0.113282 0.019638 -0.034185 0.066509 -0.085418 -0.201733 0.061210 0.213740
15 0.177023 0.030205 -0.019287 -0.128510 0.165173 -0.070680 0.138727 0.049750 0.085215 0.095642 0.191690 0.070730 -0.188267 -0.171443 -0.038943 -0.102931 0.040186 0.196779 -0.016702 0.227392 0.062771 0.111398 0.009761 -0.097107 -0.184670 -0.100974 0.027819 0.041265 -0.006173 0.284861 -0.009036 0.032171 0.052082 -0.056234 0.053080 -0.017632 0.037672 -0.065081 0.143192 0.033525 0.012125 -0.047266 0.215223 -0.063490 -0.068867 -0.025244 -0.025447 0.006665 -0.113694 0.041355 -0.071171 -0.025057 0.014660 -0.066142 -0.022407 -0.080020 -0.240885 0.035074 0.096823 -0.159960 -0.011384 0.151568 -0.049118 0.040640 0.008369 0.047864 0.010066 0.067680 0.006555 -0.203739 0.036379 0.150855 0.089136 0.163607 0.091222 -0.066522 -0.077060 -0.155197 -0.012279 0.057676 -0.028518 0.119811 0.074707 -0.053622 0.021485 0.107128 0.089781 -0.000951 -0.201384 -0.194367 -0.174945 -0.165070 0.025751 0.000195 -0.061469 0.041465 0.115159 -0.030895 0.046973 -0.082471 -0.005325 0.059096 -0.110089 -0.061710 -0.067013 -0.028395 0.001070 -0.070177 -0.061017 0.091561 -0.051570 0.124165 -0.008093 0.069843 0.073949 -0.062502 -0.090810 0.095949 0.081098 0.155640 -0.108333 0.020551 -0.019600 0.017762 -0.088596 -0.221023 0.061883 0.205390
16 0.199265 0.072878 -0.018976 -0.105786 0.176626 -0.091153 0.156966 0.064612 0.064037 0.090560 0.185038 0.078466 -0.223131 -0.192405 -0.025408 -0.107391 0.052455 0.182569 -0.009741 0.224402 0.047014 0.127665 0.009546 -0.087565 -0.168283 -0.109905 0.008784 0.062190 -0.003377 0.274679 0.007724 0.073642 0.064149 -0.032689 0.055133 -0.003523 0.052440 -0.059618 0.119997 0.027432 -0.002050 -0.026242 0.225210 -0.060421 -0.051668 -0.020165 -0.039113 0.005744 -0.110481 0.044204 -0.094123 -0.037448 0.048607 -0.084283 -0.050500 -0.106350 -0.268190 0.035010 0.130426 -0.158828 -0.032805 0.134691 -0.063212 0.068904 -0.006409 0.041344 0.014916 0.063898 0.015456 -0.176252 0.038179 0.141493 0.073092 0.166189 0.083897 -0.089092 -0.064695 -0.140733 0.009111 0.042514 -0.016846 0.112275 0.059686 -0.033189 0.029185 0.093509 0.077789 -0.013854 -0.184025 -0.192084 -0.165982 -0.150634 0.026144 0.005318 -0.055246 0.017511 0.095039 -0.036244 0.090349 -0.107553 -0.009859 0.080017 -0.107521 -0.054892 -0.053242 -0.051318 0.007430 -0.044187 -0.068777 0.093018 -0.050172 0.115904 -0.028121 0.089884 0.081724 -0.058522 -0.086809 0.096775 0.077265 0.184622 -0.105232 0.024140 -0.030545 0.058927 -0.082015 -0.189888 0.055341 0.198311
12 0.151434 -0.029886 -0.015564 -0.150820 0.152475 -0.046941 0.116493 0.038463 0.121152 0.097787 0.201307 0.060687 -0.137307 -0.138976 -0.045373 -0.084085 0.034664 0.208731 -0.036114 0.232373 0.078666 0.088958 0.010899 -0.107678 -0.203617 -0.093695 0.038797 0.024176 -0.011431 0.287373 -0.032714 -0.009578 0.041008 -0.081042 0.049351 -0.037221 0.015162 -0.053917 0.156814 0.047197 0.012352 -0.064233 0.201630 -0.071095 -0.087088 -0.027991 -0.005185 0.013699 -0.115141 0.050861 -0.038009 -0.014829 -0.015420 -0.054662 0.000116 -0.048840 -0.195780 0.023841 0.059687 -0.162006 0.005429 0.157932 -0.022975 0.000558 0.019811 0.070458 0.012142 0.068951 -0.008992 -0.251549 0.021968 0.161464 0.094093 0.158516 0.107308 -0.031112 -0.100620 -0.174027 -0.042383 0.077309 -0.041458 0.135531 0.090107 -0.081723 0.017683 0.113719 0.110340 0.020065 -0.236992 -0.202053 -0.185366 -0.173219 0.032033 -0.007541 -0.089142 0.069342 0.150502 -0.013450 0.001743 -0.054050 0.006632 0.031562 -0.103332 -0.054164 -0.082842 -0.002681 -0.015687 -0.101400 -0.055299 0.094309 -0.047964 0.145402 0.002138 0.036869 0.073339 -0.060549 -0.092597 0.088694 0.093637 0.133192 -0.109682 0.031888 -0.009509 -0.027267 -0.090590 -0.266369 0.067643 0.215141
