34 128
34 0.037005 0.144418 -0.066841 -0.048097 -0.029095 0.121487 0.216271 0.029140 -0.193326 -0.077555 0.138634 -0.129625 -0.046372 -0.145232 -0.095264 -0.090425 -0.188427 0.144436 0.135572 -0.085349 -0.099787 0.087021 -0.070826 -0.068338 -0.270291 0.150371 0.031292 -0.024924 -0.083469 -0.074121 -0.143923 0.016114 0.085703 0.176934 0.138363 -0.098236 -0.072350 0.110044 0.145165 -0.047444 0.086333 -0.115482 0.019830 0.005244 -0.043290 0.254130 -0.048032 0.193371 -0.062980 -0.134917 -0.040300 -0.087375 -0.010296 0.131568 0.089782 0.125064 0.229821 -0.021814 0.077594 -0.028580 -0.094481 -0.056134 0.101092 -0.101895 -0.057091 0.030443 -0.106379 -0.088395 0.092698 0.139147 -0.092183 0.075111 -0.071448 -0.127152 -0.047680 0.002862 0.103552 -0.033582 0.004563 -0.117306 0.000161 0.120879 -0.036348 -0.013097 -0.043092 0.077555 0.209641 -0.150542 0.102720 -0.180384 0.021893 0.129703 -0.118390 0.129705 0.120565 -0.069785 -0.047874 -0.046169 -0.110968 -0.037358 0.081070 -0.204922 0.115203 -0.216822 0.020262 0.151346 -0.012931 0.076793 -0.109080 0.105482 0.003269 0.121658 0.136843 0.143514 0.013599 0.049089 -0.101379 -0.139009 -0.039422 -0.002675 -0.121472 -0.044425 -0.064181 -0.083477 -0.055567 0.059318 0.074866 -0.068917
1 -0.007769 0.274709 -0.090435 -0.041658 0.039114 0.126427 0.157557 -0.011751 -0.196664 -0.028778 0.099567 -0.096736 -0.028090 -0.293747 -0.188253 -0.156042 -0.078327 0.154712 0.145678 -0.135637 -0.139435 0.069579 0.051394 -0.157001 -0.215600 0.057876 0.013732 -0.028174 -0.035757 -0.041652 -0.033577 -0.058661 0.040920 0.222820 0.087833 -0.011695 0.080632 0.142964 0.072731 -0.011592 0.006638 -0.151252 0.065194 0.066354 -0.242112 0.227436 -0.058518 0.208835 -0.029500 -0.054210 -0.025259 -0.191243 -0.047158 0.260235 0.011722 0.030413 0.204009 0.006845 0.056553 0.070777 -0.127425 -0.064472 0.142279 0.041766 -0.081898 0.020517 -0.128285 -0.016827 -0.080144 -0.005021 -0.029393 0.087520 0.139507 -0.049145 -0.042593 -0.082282 0.019727 -0.155500 -0.011671 -0.007514 0.007955 0.038718 -0.100991 0.002621 0.042377 0.041571 0.174479 -0.074068 0.050410 -0.093409 0.111304 0.123718 -0.109791 0.175821 0.067598 -0.123598 -0.123548 -0.107754 -0.203284 -0.065846 0.111060 -0.134692 0.112743 -0.172822 -0.082802 0.246965 -0.004793 0.037336 -0.097718 0.215955 0.029791 0.190807 -0.060245 0.138788 -0.128903 0.053110 -0.027946 -0.109188 -0.100014 0.163521 -0.049439 0.017983 -0.035992 -0.089180 -0.051861 0.024000 0.118084 -0.107375
33 0.044929 0.092823 -0.055311 -0.051555 -0.043202 0.110518 0.219475 0.040273 -0.177810 -0.088617 0.139835 -0.136595 -0.054953 -0.095683 -0.069643 -0.065979 -0.212700 0.131166 0.127808 -0.072451 -0.084825 0.089923 -0.103864 -0.049584 -0.284343 0.163072 0.036332 -0.024591 -0.090799 -0.085669 -0.169139 0.024571 0.100021 0.160908 0.148953 -0.114385 -0.109012 0.105519 0.163788 -0.050346 0.106770 -0.102704 0.008466 -0.008461 0.009529 0.247441 -0.042336 0.184135 -0.073289 -0.152363 -0.038909 -0.056899 -0.005742 0.086837 0.106237 0.139454 0.238045 -0.028296 0.079333 -0.051084 -0.086190 -0.051314 0.085006 -0.135686 -0.053995 0.028921 -0.093386 -0.109129 0.139505 0.174943 -0.101180 0.071209 -0.118097 -0.142752 -0.047772 0.025706 0.120499 -0.003776 0.007201 -0.137964 -0.000958 0.142709 -0.023421 -0.010542 -0.063325 0.093019 0.216678 -0.168407 0.121550 -0.195624 -0.007102 0.135730 -0.126770 0.121353 0.129654 -0.055655 -0.026343 -0.034875 -0.087152 -0.028671 0.071793 -0.226475 0.120099 -0.233499 0.046777 0.128199 -0.021473 0.091241 -0.114081 0.087119 -0.008795 0.109769 0.188389 0.152547 0.046204 0.045217 -0.119803 -0.152975 -0.021589 -0.040120 -0.141079 -0.060823 -0.068972 -0.086697 -0.057791 0.071432 0.065134 -0.063259
3 0.023760 0.145371 -0.070661 -0.050057 -0.012803 0.110047 0.186075 0.025559 -0.176110 -0.058771 0.118396 -0.117968 -0.039250 -0.163103 -0.109836 -0.089429 -0.159116 0.134312 0.127984 -0.084915 -0.099919 0.076060 -0.051210 -0.082074 -0.247200 0.126676 0.027078 -0.028023 -0.071178 -0.069021 -0.117678 0.001321 0.071786 0.180946 0.127207 -0.072873 -0.035592 0.106291 0.124588 -0.033845 0.070541 -0.113493 0.024760 0.009897 -0.080638 0.238944 -0.049304 0.190128 -0.052936 -0.114747 -0.040026 -0.109283 -0.019407 0.146884 0.071474 0.104111 0.213336 -0.017670 0.069222 -0.008217 -0.102442 -0.056752 0.104191 -0.064730 -0.057017 0.028265 -0.107495 -0.070850 0.053204 0.105617 -0.073399 0.071901 -0.033165 -0.115561 -0.053898 -0.013811 0.083356 -0.054410 0.000279 -0.096459 -0.008284 0.108366 -0.048871 -0.010497 -0.022994 0.077352 0.206089 -0.135148 0.093948 -0.159584 0.036996 0.124801 -0.111095 0.135461 0.105008 -0.077653 -0.060780 -0.059686 -0.122064 -0.039635 0.076671 -0.191778 0.113035 -0.208898 0.004841 0.169015 -0.013780 0.070454 -0.105738 0.127622 0.002120 0.129172 0.096590 0.142258 -0.013716 0.044538 -0.085799 -0.127580 -0.047848 0.035014 -0.108968 -0.029760 -0.057649 -0.088820 -0.061372 0.044144 0.086729 -0.078170
2 0.015078 0.173680 -0.074724 -0.048748 0.000412 0.110145 0.196986 0.018497 -0.185695 -0.055969 0.119668 -0.116880 -0.045988 -0.189755 -0.130671 -0.098148 -0.150837 0.142885 0.134707 -0.100404 -0.108051 0.082517 -0.025316 -0.103535 -0.252608 0.105656 0.031577 -0.023129 -0.067727 -0.073028 -0.102961 -0.017356 0.078354 0.184718 0.122925 -0.068298 -0.011045 0.116651 0.124064 -0.036576 0.065067 -0.128361 0.040341 0.014165 -0.112291 0.240760 -0.053940 0.201897 -0.051890 -0.103515 -0.035752 -0.129014 -0.027686 0.171881 0.064131 0.085375 0.221983 -0.013697 0.063316 -0.000993 -0.101588 -0.051720 0.120367 -0.042441 -0.060579 0.023404 -0.108654 -0.067353 0.032017 0.095873 -0.077813 0.078766 0.007251 -0.099486 -0.056798 -0.023449 0.070948 -0.075146 0.002632 -0.079049 -0.011938 0.104322 -0.057065 -0.002571 -0.011793 0.075954 0.213464 -0.128709 0.098363 -0.152921 0.053809 0.123453 -0.110855 0.155509 0.103245 -0.090449 -0.065545 -0.072371 -0.133231 -0.042166 0.083162 -0.182194 0.120042 -0.204018 -0.016945 0.188579 -0.009420 0.066686 -0.114976 0.147261 0.009319 0.145879 0.067426 0.145930 -0.040295 0.041650 -0.077969 -0.124170 -0.046495 0.052555 -0.101922 -0.019300 -0.042709 -0.094740 -0.052626 0.042287 0.093292 -0.082430
32 0.029172 0.136239 -0.071027 -0.050795 -0.019516 0.113206 0.201606 0.027724 -0.174241 -0.066228 0.124731 -0.116802 -0.044594 -0.144495 -0.100979 -0.094492 -0.174582 0.134640 0.131020 -0.088166 -0.098386 0.078947 -0.059698 -0.076780 -0.259084 0.139471 0.030582 -0.027795 -0.081960 -0.075303 -0.126146 0.006004 0.081489 0.173930 0.126747 -0.088859 -0.050302 0.112262 0.139595 -0.036334 0.079521 -0.112099 0.021686 0.014526 -0.061913 0.242125 -0.044905 0.191988 -0.059149 -0.122228 -0.036452 -0.092878 -0.016323 0.136229 0.085803 0.117797 0.220333 -0.019779 0.072331 -0.015933 -0.101759 -0.059288 0.100872 -0.086076 -0.059068 0.032175 -0.100585 -0.079222 0.076099 0.119461 -0.085011 0.075405 -0.049612 -0.121962 -0.047148 -0.005816 0.099256 -0.044508 -0.001072 -0.109053 -0.000144 0.120888 -0.041857 -0.008855 -0.034809 0.080251 0.205788 -0.145059 0.101622 -0.174687 0.024034 0.135895 -0.115055 0.135092 0.109652 -0.071309 -0.054322 -0.052582 -0.118718 -0.035615 0.079908 -0.196216 0.115121 -0.210522 0.015180 0.156139 -0.015572 0.079737 -0.105372 0.120269 0.003080 0.126260 0.123531 0.147148 0.003451 0.048507 -0.099423 -0.131315 -0.042667 0.015380 -0.118175 -0.031938 -0.065786 -0.089818 -0.055003 0.053340 0.081104 -0.070450
4 0.013840 0.207088 -0.076886 -0.045740 0.013289 0.113889 0.177633 0.003900 -0.190888 -0.050229 0.109823 -0.111944 -0.035264 -0.225014 -0.146315 -0.124596 -0.118523 0.147882 0.134812 -0.108070 -0.116540 0.071083 -0.003406 -0.117664 -0.228509 0.089540 0.022175 -0.019682 -0.051988 -0.059171 -0.082381 -0.029237 0.063265 0.195812 0.105915 -0.050578 0.018494 0.125719 0.102128 -0.025498 0.047372 -0.134360 0.049200 0.034022 -0.158058 0.234683 -0.053024 0.199772 -0.040892 -0.088401 -0.030732 -0.145522 -0.030822 0.205285 0.043525 0.072856 0.206628 -0.006074 0.060016 0.024616 -0.113330 -0.062250 0.124119 -0.014294 -0.067038 0.024133 -0.114958 -0.046686 -0.009162 0.061638 -0.054781 0.081393 0.047945 -0.085806 -0.045427 -0.049539 0.052238 -0.103368 -0.001664 -0.051991 -0.003300 0.081474 -0.071200 -0.004129 0.004957 0.056082 0.188387 -0.105664 0.073571 -0.126499 0.072221 0.121944 -0.109589 0.154573 0.086992 -0.098923 -0.090019 -0.081398 -0.155770 -0.051053 0.086935 -0.164106 0.109902 -0.191485 -0.036863 0.199139 -0.006303 0.055681 -0.105301 0.166275 0.020522 0.156790 0.022834 0.142734 -0.067651 0.044991 -0.064425 -0.112003 -0.068787 0.094494 -0.077731 -0.003742 -0.039957 -0.081202 -0.048026 0.033127 0.100505 -0.086192
14 0.019302 0.184437 -0.076756 -0.044116 -0.000063 0.121676 0.188337 0.013731 -0.182639 -0.053014 0.122764 -0.113126 -0.042923 -0.205970 -0.134710 -0.116589 -0.138119 0.148506 0.137136 -0.104409 -0.116683 0.081343 -0.019454 -0.112400 -0.243072 0.105969 0.026607 -0.029322 -0.064773 -0.061026 -0.094546 -0.019397 0.071328 0.195734 0.117353 -0.060869 -0.006538 0.119659 0.119528 -0.027528 0.053865 -0.132131 0.037898 0.029040 -0.129778 0.238373 -0.056561 0.205985 -0.048456 -0.099527 -0.034357 -0.135119 -0.031657 0.182357 0.053796 0.081193 0.220401 -0.007225 0.064686 0.010502 -0.110373 -0.063158 0.120521 -0.035476 -0.070835 0.026977 -0.118171 -0.060890 0.014785 0.080645 -0.066212 0.086323 0.016888 -0.099368 -0.052634 -0.031704 0.064256 -0.090224 -0.004852 -0.068447 -0.006560 0.091008 -0.066749 -0.005819 -0.007390 0.071395 0.207254 -0.125728 0.091697 -0.148716 0.058054 0.131926 -0.114665 0.148924 0.102126 -0.091667 -0.074939 -0.075450 -0.151035 -0.051454 0.089611 -0.179117 0.115989 -0.203713 -0.025210 0.199906 -0.014914 0.065270 -0.112363 0.159457 0.007720 0.154541 0.057620 0.145342 -0.047083 0.048738 -0.069710 -0.128991 -0.062740 0.066391 -0.098684 -0.018295 -0.051829 -0.093414 -0.059149 0.045633 0.101413 -0.091314
24 0.036390 0.125494 -0.061706 -0.046235 -0.030230 0.107853 0.204215 0.027426 -0.177993 -0.072740 0.124961 -0.122336 -0.050100 -0.131181 -0.089908 -0.086573 -0.180262 0.136274 0.119435 -0.077211 -0.094812 0.084085 -0.075439 -0.060502 -0.256708 0.144381 0.024359 -0.024514 -0.077829 -0.071858 -0.136966 0.019191 0.079329 0.164476 0.130432 -0.095391 -0.077859 0.105643 0.140334 -0.037396 0.092314 -0.105891 0.014873 0.007081 -0.037939 0.239565 -0.047197 0.185709 -0.067863 -0.130769 -0.037397 -0.075332 -0.017084 0.120131 0.090200 0.124288 0.224104 -0.022047 0.072611 -0.029598 -0.095863 -0.058765 0.091301 -0.103429 -0.061256 0.025318 -0.097598 -0.087349 0.095004 0.138330 -0.087203 0.064782 -0.076052 -0.130108 -0.047350 0.004382 0.107267 -0.032796 0.005001 -0.119390 0.003268 0.125455 -0.032787 -0.016248 -0.038802 0.080774 0.203049 -0.150051 0.098227 -0.178310 0.010553 0.132527 -0.120012 0.128844 0.119512 -0.062770 -0.049669 -0.038471 -0.103965 -0.034263 0.074116 -0.205023 0.110874 -0.217877 0.024690 0.138743 -0.016761 0.082567 -0.108882 0.102796 -0.002889 0.122599 0.143395 0.142128 0.013544 0.051070 -0.106967 -0.135649 -0.035567 -0.009201 -0.120110 -0.044962 -0.066306 -0.078644 -0.061602 0.055815 0.074836 -0.068739
30 0.040390 0.115373 -0.055445 -0.048010 -0.038694 0.114212 0.214208 0.024864 -0.181477 -0.084681 0.135242 -0.132641 -0.047444 -0.121921 -0.078745 -0.077093 -0.189782 0.140043 0.126007 -0.079284 -0.090543 0.088553 -0.087253 -0.053123 -0.267335 0.146025 0.034647 -0.020407 -0.082567 -0.073276 -0.152710 0.017213 0.092822 0.160513 0.135021 -0.106216 -0.088660 0.104965 0.146908 -0.042183 0.100480 -0.106918 0.014362 -0.002715 -0.020039 0.243207 -0.044189 0.188277 -0.069103 -0.137136 -0.037344 -0.063959 -0.009083 0.107868 0.098087 0.126678 0.229708 -0.026239 0.075763 -0.045168 -0.091231 -0.058237 0.094201 -0.114251 -0.051693 0.031658 -0.096042 -0.097688 0.118041 0.149531 -0.097865 0.066427 -0.090354 -0.129940 -0.044509 0.012551 0.107676 -0.016377 0.004352 -0.125176 0.003738 0.131126 -0.030009 -0.015652 -0.050284 0.082102 0.208402 -0.158383 0.106037 -0.187934 0.004966 0.131658 -0.124532 0.127392 0.121431 -0.060937 -0.037089 -0.041356 -0.096161 -0.031439 0.067073 -0.212319 0.117157 -0.222451 0.037952 0.136660 -0.017797 0.085060 -0.116098 0.093545 0.001434 0.120101 0.161674 0.147686 0.020955 0.052448 -0.113213 -0.146658 -0.029218 -0.025959 -0.133424 -0.052633 -0.062733 -0.086190 -0.058422 0.067443 0.069897 -0.071315
6 -0.015514 0.332974 -0.099004 -0.037836 0.050513 0.133658 0.147564 -0.028988 -0.223412 -0.023190 0.108640 -0.096674 -0.019928 -0.351890 -0.223166 -0.195550 -0.054524 0.164112 0.141462 -0.153278 -0.155429 0.065121 0.096107 -0.183631 -0.195397 0.046817 -0.000857 -0.014498 -0.019788 -0.032407 -0.009785 -0.069744 0.019462 0.241746 0.067581 -0.001877 0.113529 0.158718 0.052941 -0.008584 -0.020011 -0.163484 0.082381 0.088704 -0.303483 0.238409 -0.065281 0.223471 -0.029493 -0.037531 -0.017695 -0.214208 -0.048223 0.310364 -0.008128 0.011263 0.195842 0.016883 0.056948 0.095375 -0.135852 -0.075978 0.160507 0.075391 -0.096908 0.023341 -0.139696 0.008781 -0.126667 -0.045596 -0.007961 0.094905 0.195148 -0.032342 -0.029883 -0.110723 0.003042 -0.192633 -0.014334 0.026157 0.024885 0.011636 -0.117147 0.004630 0.062111 0.015953 0.146502 -0.044908 0.025128 -0.068370 0.135439 0.123406 -0.114252 0.184402 0.048475 -0.127759 -0.153038 -0.123874 -0.227858 -0.076421 0.119881 -0.106974 0.113414 -0.156380 -0.110005 0.265835 0.000678 0.018986 -0.091231 0.245752 0.041694 0.208258 -0.113845 0.132303 -0.162734 0.050761 -0.012872 -0.090697 -0.123210 0.213990 -0.016273 0.029896 -0.034212 -0.080527 -0.042724 0.018901 0.130214 -0.105171
8 0.006461 0.229203 -0.084615 -0.040744 0.021196 0.123204 0.178969 -0.000417 -0.194976 -0.044522 0.112496 -0.109793 -0.036187 -0.249047 -0.165761 -0.133406 -0.113736 0.151609 0.142245 -0.117361 -0.129167 0.070853 0.012835 -0.135461 -0.236158 0.080087 0.026226 -0.025239 -0.052588 -0.057488 -0.066477 -0.037750 0.054425 0.207135 0.097925 -0.037302 0.039548 0.134859 0.098813 -0.028405 0.033178 -0.140871 0.057208 0.037130 -0.187271 0.239011 -0.051066 0.212929 -0.040781 -0.082439 -0.029082 -0.164311 -0.039795 0.223944 0.031924 0.058586 0.216823 -0.002285 0.063155 0.038024 -0.118308 -0.058064 0.133725 0.002529 -0.074165 0.020826 -0.125896 -0.041801 -0.033061 0.041161 -0.052924 0.089688 0.078426 -0.076924 -0.052623 -0.055831 0.045148 -0.124371 -0.000109 -0.038532 -0.006054 0.076178 -0.078993 0.000193 0.017756 0.060694 0.196397 -0.101404 0.073340 -0.121274 0.086389 0.121374 -0.108399 0.162400 0.088475 -0.111046 -0.099955 -0.086291 -0.169370 -0.056513 0.100231 -0.158079 0.118979 -0.188666 -0.053090 0.222671 -0.011453 0.047639 -0.104397 0.189926 0.019884 0.164909 -0.001868 0.143369 -0.081125 0.042078 -0.050279 -0.119793 -0.072260 0.116149 -0.068067 0.005429 -0.041116 -0.088261 -0.052533 0.026779 0.112846 -0.092795
7 -0.007581 0.313471 -0.093663 -0.034768 0.046850 0.131241 0.155014 -0.022295 -0.220399 -0.033515 0.111354 -0.099307 -0.021008 -0.336008 -0.217155 -0.188746 -0.069418 0.164309 0.149065 -0.148509 -0.157750 0.065007 0.077979 -0.176367 -0.207416 0.058090 0.004911 -0.019797 -0.027148 -0.035001 -0.018747 -0.064788 0.026207 0.243420 0.081928 -0.007232 0.096504 0.162035 0.065870 -0.012700 -0.009780 -0.160798 0.079246 0.084856 -0.283930 0.246669 -0.059379 0.223141 -0.029150 -0.053904 -0.022374 -0.203638 -0.042497 0.297597 0.001141 0.021526 0.204598 0.011166 0.060682 0.090681 -0.133149 -0.075208 0.161703 0.057046 -0.099748 0.025204 -0.135207 0.003095 -0.110942 -0.027341 -0.016896 0.102472 0.167183 -0.044112 -0.038264 -0.103798 0.013908 -0.178857 -0.014907 0.011958 0.026798 0.022522 -0.116904 0.003984 0.048815 0.026569 0.155467 -0.056956 0.034571 -0.082130 0.124559 0.128306 -0.119555 0.183379 0.062793 -0.123582 -0.147832 -0.116259 -0.223677 -0.080012 0.126038 -0.122763 0.114098 -0.170878 -0.099138 0.265394 0.003334 0.028164 -0.097275 0.238495 0.035470 0.208745 -0.085326 0.145868 -0.149638 0.057533 -0.023012 -0.101232 -0.120412 0.199837 -0.029788 0.027136 -0.035999 -0.078924 -0.048899 0.016689 0.128211 -0.107361
9 0.014372 0.206003 -0.075128 -0.047417 0.004854 0.119850 0.190623 0.009325 -0.194857 -0.058106 0.119294 -0.116360 -0.036956 -0.216024 -0.141105 -0.116281 -0.129227 0.147266 0.137604 -0.106591 -0.116772 0.081815 -0.006740 -0.111225 -0.236638 0.095626 0.024878 -0.023057 -0.061374 -0.062447 -0.092348 -0.023581 0.062671 0.198060 0.113661 -0.054305 0.007150 0.123575 0.105456 -0.033549 0.053118 -0.130617 0.046720 0.033957 -0.138210 0.236233 -0.055264 0.203466 -0.044668 -0.095275 -0.032370 -0.133577 -0.026063 0.190072 0.053987 0.074049 0.207949 -0.005368 0.065352 0.016131 -0.107345 -0.062845 0.120454 -0.025476 -0.068198 0.023980 -0.109913 -0.049521 0.006778 0.073250 -0.062239 0.084132 0.036214 -0.085665 -0.048184 -0.038528 0.056458 -0.094662 -0.006692 -0.060862 -0.002151 0.079830 -0.062878 -0.005052 -0.003935 0.062858 0.191327 -0.113440 0.078113 -0.130797 0.064320 0.123022 -0.113800 0.152101 0.096206 -0.096090 -0.077544 -0.076936 -0.149262 -0.044295 0.083185 -0.167529 0.114548 -0.185840 -0.027868 0.191765 -0.006511 0.059531 -0.106487 0.155629 0.015694 0.148679 0.036666 0.132004 -0.059012 0.047516 -0.063282 -0.116971 -0.065900 0.074682 -0.080555 -0.011165 -0.040003 -0.084900 -0.050992 0.038089 0.094064 -0.086261
28 0.038519 0.126014 -0.067602 -0.047692 -0.026445 0.117146 0.208023 0.026132 -0.186330 -0.073201 0.135652 -0.132241 -0.052883 -0.134822 -0.092716 -0.089202 -0.186068 0.141324 0.134336 -0.083152 -0.093975 0.088247 -0.080339 -0.073049 -0.265601 0.151472 0.032384 -0.026066 -0.082551 -0.079088 -0.145952 0.015642 0.090537 0.175356 0.137730 -0.100286 -0.075858 0.114253 0.145678 -0.039707 0.090499 -0.113105 0.017534 0.003478 -0.038080 0.250754 -0.044848 0.198894 -0.063527 -0.137065 -0.034435 -0.086648 -0.010823 0.129032 0.091609 0.129496 0.233442 -0.023500 0.072721 -0.033328 -0.100347 -0.059756 0.099368 -0.103410 -0.062749 0.029486 -0.104097 -0.089191 0.097862 0.143801 -0.093924 0.077800 -0.073623 -0.132274 -0.050744 0.007984 0.106070 -0.034415 0.001226 -0.121850 -0.002582 0.132676 -0.042634 -0.015028 -0.040019 0.083840 0.217076 -0.154274 0.112094 -0.186538 0.016371 0.142554 -0.123992 0.133136 0.122818 -0.072789 -0.051846 -0.049641 -0.106620 -0.032279 0.076891 -0.209401 0.121762 -0.223544 0.027800 0.153384 -0.013880 0.084692 -0.114756 0.111355 -0.001402 0.125684 0.146977 0.151858 0.014901 0.049744 -0.106613 -0.140317 -0.039185 -0.002865 -0.125778 -0.041098 -0.068292 -0.089047 -0.058962 0.062395 0.079914 -0.069876
11 -0.008724 0.280893 -0.089616 -0.034741 0.035505 0.120474 0.161735 -0.011203 -0.205855 -0.034439 0.110155 -0.101411 -0.025236 -0.295919 -0.195686 -0.163977 -0.077481 0.148684 0.134253 -0.130286 -0.136485 0.068099 0.057726 -0.149629 -0.205025 0.063401 0.010452 -0.015856 -0.034952 -0.042229 -0.030789 -0.050901 0.029650 0.217454 0.085864 -0.015370 0.073407 0.142686 0.066162 -0.015000 0.004160 -0.142627 0.067404 0.062522 -0.242360 0.228728 -0.056640 0.207279 -0.034384 -0.057819 -0.023695 -0.181909 -0.041025 0.263451 0.010212 0.033531 0.199337 0.004722 0.055225 0.071288 -0.122427 -0.067304 0.146066 0.037861 -0.085204 0.021619 -0.123515 -0.010662 -0.085214 -0.008208 -0.028927 0.093435 0.132954 -0.053993 -0.037543 -0.089545 0.027933 -0.155223 -0.012481 -0.002325 0.016352 0.038764 -0.096461 0.002431 0.035344 0.032885 0.156085 -0.068030 0.039311 -0.087750 0.108776 0.119535 -0.105333 0.168499 0.065621 -0.111289 -0.123752 -0.108854 -0.201525 -0.069882 0.113994 -0.127806 0.112023 -0.167442 -0.083637 0.238766 0.002362 0.033420 -0.092399 0.211394 0.031495 0.181798 -0.060695 0.136650 -0.128488 0.047134 -0.033491 -0.096424 -0.097815 0.166251 -0.036615 0.019107 -0.031018 -0.076213 -0.042475 0.020312 0.119054 -0.100430
29 0.026061 0.152393 -0.075245 -0.049388 -0.014707 0.119566 0.205575 0.025530 -0.181768 -0.066725 0.124211 -0.120976 -0.043948 -0.163464 -0.109576 -0.096237 -0.164395 0.143044 0.130070 -0.087105 -0.105463 0.084982 -0.054138 -0.088058 -0.257562 0.127117 0.030116 -0.029478 -0.072261 -0.074609 -0.120332 0.000394 0.083447 0.186465 0.128069 -0.081193 -0.039058 0.119051 0.130826 -0.035559 0.075531 -0.116943 0.031038 0.008967 -0.083547 0.245747 -0.050583 0.199480 -0.055327 -0.123442 -0.038308 -0.105630 -0.023805 0.148740 0.077531 0.104404 0.224547 -0.018073 0.072131 -0.011497 -0.102396 -0.060927 0.111694 -0.073551 -0.066109 0.025873 -0.106188 -0.078313 0.061669 0.113406 -0.076985 0.074455 -0.033112 -0.119940 -0.052346 -0.013139 0.084584 -0.055874 -0.002237 -0.098257 -0.001959 0.115565 -0.047788 -0.007780 -0.023747 0.078161 0.208907 -0.141051 0.100873 -0.167345 0.031061 0.131269 -0.119838 0.142575 0.111608 -0.077474 -0.057106 -0.058091 -0.126501 -0.037525 0.077796 -0.194133 0.113891 -0.216671 0.002374 0.173988 -0.017818 0.074702 -0.113023 0.133941 0.003612 0.139906 0.103430 0.151005 -0.011367 0.045659 -0.093197 -0.133428 -0.048869 0.031264 -0.115237 -0.028990 -0.055124 -0.092172 -0.062423 0.050366 0.091375 -0.078717
20 0.026646 0.175700 -0.075714 -0.045767 -0.011479 0.118935 0.203435 0.015901 -0.191733 -0.065212 0.127327 -0.122090 -0.045980 -0.183107 -0.116652 -0.106870 -0.161372 0.146392 0.135010 -0.099679 -0.107274 0.081303 -0.039986 -0.093770 -0.250912 0.121775 0.029462 -0.022905 -0.071033 -0.068918 -0.114958 -0.005127 0.072661 0.182941 0.119308 -0.077180 -0.032486 0.119322 0.126012 -0.035704 0.070766 -0.125391 0.033829 0.021486 -0.091416 0.244889 -0.044894 0.199184 -0.052538 -0.113751 -0.031525 -0.112937 -0.023482 0.160784 0.070896 0.097387 0.220475 -0.012430 0.069157 -0.010118 -0.099270 -0.060019 0.111771 -0.067467 -0.060434 0.029261 -0.108324 -0.072444 0.046594 0.100561 -0.071427 0.078448 -0.015505 -0.102964 -0.046606 -0.017476 0.086571 -0.067650 -0.001999 -0.089473 0.002148 0.101383 -0.052175 -0.008713 -0.021068 0.066714 0.199559 -0.125612 0.092399 -0.154198 0.039130 0.130000 -0.116403 0.141931 0.109934 -0.084997 -0.065881 -0.060231 -0.127047 -0.039305 0.083014 -0.181472 0.110724 -0.201201 -0.006078 0.171737 -0.010156 0.070285 -0.109460 0.127388 0.008988 0.138904 0.085882 0.140333 -0.021033 0.044317 -0.081958 -0.125474 -0.053837 0.038215 -0.096940 -0.031033 -0.050176 -0.080127 -0.054209 0.051897 0.085007 -0.078686
5 0.001972 0.262219 -0.086605 -0.039205 0.021741 0.123163 0.171705 -0.003784 -0.209439 -0.040785 0.116593 -0.105885 -0.030532 -0.273000 -0.180234 -0.153845 -0.096797 0.154604 0.139367 -0.130430 -0.134857 0.072680 0.032193 -0.144961 -0.222118 0.079698 0.011049 -0.022154 -0.045353 -0.051534 -0.051493 -0.043628 0.041808 0.215322 0.095395 -0.033573 0.050236 0.144400 0.089664 -0.018838 0.017616 -0.144057 0.058737 0.057179 -0.209146 0.242403 -0.055423 0.209829 -0.038110 -0.075897 -0.027318 -0.168682 -0.032673 0.246418 0.029402 0.054102 0.206213 -0.002102 0.065435 0.054606 -0.121141 -0.064430 0.141801 0.012747 -0.085329 0.027208 -0.125034 -0.022063 -0.049659 0.023365 -0.035399 0.091525 0.102748 -0.068288 -0.037849 -0.075313 0.037734 -0.132789 -0.010378 -0.029257 0.012162 0.051473 -0.090460 -0.000091 0.023928 0.037844 0.170167 -0.083205 0.052900 -0.105163 0.091183 0.124360 -0.115998 0.167631 0.076311 -0.106427 -0.111571 -0.095362 -0.189996 -0.063939 0.104110 -0.142685 0.110326 -0.177096 -0.065076 0.224963 -0.004208 0.038325 -0.100540 0.199899 0.023402 0.178886 -0.024278 0.134501 -0.102706 0.050274 -0.041632 -0.108728 -0.094859 0.140311 -0.056001 0.010374 -0.045026 -0.076723 -0.046436 0.028636 0.108925 -0.097170
31 0.030315 0.146311 -0.062912 -0.045036 -0.019502 0.117293 0.197801 0.021170 -0.177047 -0.064721 0.120148 -0.116122 -0.045591 -0.162320 -0.101148 -0.087800 -0.162356 0.143304 0.132744 -0.089448 -0.099632 0.081856 -0.049060 -0.083949 -0.254131 0.120091 0.031755 -0.029734 -0.072726 -0.070849 -0.125314 -0.003009 0.083567 0.177370 0.121716 -0.084143 -0.050451 0.108346 0.126313 -0.039292 0.078958 -0.118658 0.022557 0.010615 -0.074493 0.233545 -0.047529 0.195489 -0.059040 -0.117754 -0.033676 -0.105043 -0.025168 0.145136 0.071702 0.098883 0.218827 -0.009729 0.070422 -0.019856 -0.101406 -0.057510 0.101661 -0.073399 -0.054562 0.021072 -0.107110 -0.078249 0.067951 0.116494 -0.075239 0.068086 -0.032341 -0.105622 -0.053851 -0.004882 0.078830 -0.048586 0.004831 -0.097323 -0.002218 0.108589 -0.047261 -0.009073 -0.023010 0.075088 0.206028 -0.139080 0.101930 -0.159904 0.033102 0.126805 -0.119740 0.138054 0.113717 -0.077585 -0.053071 -0.055064 -0.118883 -0.033836 0.073672 -0.195921 0.113882 -0.210898 0.004110 0.165713 -0.016992 0.071269 -0.109228 0.128282 0.003036 0.131614 0.106171 0.147497 -0.010687 0.051254 -0.087323 -0.139088 -0.040883 0.016273 -0.111189 -0.038797 -0.059237 -0.087653 -0.062594 0.055404 0.082367 -0.079316
26 0.046633 0.098867 -0.065143 -0.055394 -0.038875 0.111530 0.220625 0.037386 -0.174381 -0.079288 0.131879 -0.128136 -0.048436 -0.101603 -0.069174 -0.070121 -0.201338 0.132500 0.122646 -0.070237 -0.082633 0.084234 -0.105148 -0.048652 -0.268545 0.163195 0.037806 -0.019613 -0.092510 -0.078994 -0.162091 0.029202 0.086525 0.156966 0.145899 -0.112369 -0.101502 0.100995 0.156329 -0.049064 0.102154 -0.099896 0.009799 -0.005550 0.008052 0.246178 -0.036012 0.180610 -0.067712 -0.143088 -0.044102 -0.059741 -0.004084 0.093017 0.107158 0.146454 0.229462 -0.028234 0.074700 -0.052546 -0.088910 -0.047754 0.084034 -0.126714 -0.054717 0.034864 -0.094418 -0.102350 0.125245 0.161846 -0.101660 0.065258 -0.121264 -0.144186 -0.043925 0.024516 0.126638 -0.006495 0.001856 -0.142940 -0.002881 0.142710 -0.022483 -0.016238 -0.060062 0.093342 0.209317 -0.164611 0.116159 -0.195488 -0.000255 0.134169 -0.120465 0.120984 0.128569 -0.055787 -0.035002 -0.032538 -0.082476 -0.026746 0.070256 -0.215082 0.110280 -0.223502 0.049540 0.122409 -0.019525 0.087229 -0.106153 0.080392 -0.007975 0.103127 0.185436 0.144324 0.044420 0.047846 -0.113041 -0.138203 -0.025992 -0.035710 -0.134304 -0.049304 -0.067202 -0.083676 -0.060666 0.062615 0.065282 -0.056332
25 0.037308 0.127016 -0.072225 -0.052634 -0.029506 0.112545 0.212369 0.031981 -0.179008 -0.072942 0.129105 -0.118902 -0.043410 -0.136196 -0.091245 -0.089126 -0.179410 0.137846 0.124355 -0.081615 -0.097888 0.079439 -0.075452 -0.064788 -0.261865 0.149706 0.034727 -0.020075 -0.086253 -0.072542 -0.134610 0.013833 0.079204 0.168061 0.135612 -0.102093 -0.073132 0.115691 0.144557 -0.042924 0.091510 -0.111596 0.020981 0.004912 -0.044033 0.248354 -0.041417 0.195258 -0.061425 -0.133439 -0.039090 -0.080480 -0.018189 0.131191 0.094075 0.128601 0.230117 -0.023784 0.076077 -0.024698 -0.101809 -0.055565 0.097337 -0.095966 -0.059085 0.029696 -0.101528 -0.091072 0.085628 0.131370 -0.088854 0.071058 -0.074777 -0.131908 -0.049085 0.000757 0.107851 -0.038036 -0.000298 -0.117715 0.004253 0.125458 -0.038204 -0.014762 -0.039717 0.080493 0.201582 -0.144114 0.101262 -0.178686 0.022273 0.130481 -0.123529 0.131012 0.116710 -0.069141 -0.049413 -0.045214 -0.112492 -0.037856 0.083086 -0.208827 0.115426 -0.224335 0.024482 0.149135 -0.014817 0.077240 -0.108446 0.110486 0.001169 0.121533 0.143358 0.148796 0.009440 0.050795 -0.103510 -0.136043 -0.035857 0.002106 -0.121065 -0.038471 -0.067329 -0.083094 -0.055021 0.056554 0.083090 -0.065577
27 0.044856 0.119458 -0.063419 -0.050213 -0.031768 0.112426 0.215731 0.029517 -0.188381 -0.084677 0.137823 -0.132106 -0.052072 -0.126268 -0.082232 -0.079972 -0.192035 0.138233 0.126767 -0.078847 -0.093901 0.084305 -0.090630 -0.059041 -0.269785 0.156579 0.035162 -0.022993 -0.081763 -0.077145 -0.148789 0.019069 0.092329 0.169783 0.138160 -0.109374 -0.087179 0.112882 0.148876 -0.045747 0.096276 -0.107366 0.017376 0.003855 -0.018341 0.250711 -0.044860 0.187590 -0.072028 -0.142332 -0.035065 -0.073805 -0.006945 0.118429 0.095820 0.133519 0.233872 -0.021309 0.074150 -0.042170 -0.096705 -0.054194 0.095810 -0.117396 -0.056244 0.033066 -0.100291 -0.097875 0.112595 0.154501 -0.098910 0.072584 -0.096952 -0.133427 -0.049855 0.010658 0.116275 -0.018117 0.006094 -0.128590 0.003089 0.129809 -0.031959 -0.017436 -0.051273 0.085481 0.207365 -0.154921 0.105865 -0.191074 0.005472 0.134906 -0.126363 0.129382 0.129038 -0.058733 -0.045026 -0.043487 -0.098314 -0.030829 0.079311 -0.218155 0.119804 -0.227910 0.033611 0.144989 -0.012889 0.087271 -0.110108 0.097096 0.001249 0.116573 0.164590 0.154700 0.026224 0.051736 -0.112990 -0.145184 -0.033632 -0.014991 -0.132350 -0.047057 -0.064054 -0.087618 -0.059784 0.066678 0.075759 -0.064751
16 0.032440 0.136864 -0.066550 -0.042319 -0.022631 0.116039 0.206247 0.028338 -0.181805 -0.071680 0.127534 -0.121601 -0.046800 -0.147768 -0.094457 -0.089865 -0.175963 0.141219 0.128465 -0.081145 -0.094952 0.085131 -0.067139 -0.073316 -0.261057 0.141150 0.028187 -0.027358 -0.078294 -0.070417 -0.132989 0.007746 0.085640 0.172417 0.130356 -0.091513 -0.066127 0.112847 0.138674 -0.039342 0.084364 -0.113417 0.021872 0.011508 -0.052476 0.240973 -0.044895 0.189146 -0.062861 -0.126679 -0.038388 -0.088020 -0.016858 0.127328 0.084972 0.114342 0.223122 -0.014824 0.071894 -0.021776 -0.096899 -0.061386 0.096028 -0.092799 -0.055951 0.031955 -0.101967 -0.082118 0.082483 0.130097 -0.082881 0.069362 -0.056916 -0.118615 -0.045569 0.000504 0.093354 -0.040719 -0.001370 -0.108005 -0.001897 0.113338 -0.040336 -0.010875 -0.038160 0.078264 0.203441 -0.141206 0.100569 -0.170933 0.015939 0.131662 -0.121261 0.132486 0.113767 -0.071722 -0.047801 -0.045444 -0.113846 -0.033021 0.078684 -0.199472 0.111893 -0.210921 0.016355 0.153710 -0.011218 0.073798 -0.108632 0.112443 0.001570 0.126774 0.129547 0.145188 0.005280 0.052227 -0.101715 -0.138043 -0.039667 0.003073 -0.119352 -0.041658 -0.064056 -0.086227 -0.059328 0.058637 0.075159 -0.068515
13 0.013646 0.215349 -0.083888 -0.046545 0.006817 0.119578 0.184682 0.008805 -0.194771 -0.052496 0.118681 -0.116197 -0.038459 -0.230029 -0.150127 -0.122983 -0.132524 0.149434 0.141655 -0.108231 -0.117921 0.074309 -0.003650 -0.119412 -0.240347 0.097804 0.024309 -0.027056 -0.060445 -0.062044 -0.088459 -0.028021 0.062315 0.202765 0.111753 -0.048046 0.016234 0.130370 0.102069 -0.030507 0.043758 -0.133430 0.050235 0.033717 -0.157535 0.241385 -0.054479 0.207289 -0.043535 -0.088799 -0.036531 -0.146539 -0.033462 0.202695 0.044929 0.069918 0.217475 -0.002245 0.061549 0.024145 -0.110060 -0.061380 0.124903 -0.020660 -0.066720 0.026017 -0.117954 -0.047506 -0.006661 0.062205 -0.055213 0.080337 0.046572 -0.083392 -0.047475 -0.044871 0.054859 -0.104872 -0.002579 -0.059216 0.002095 0.078795 -0.072198 -0.003109 0.005804 0.060668 0.191975 -0.113766 0.077810 -0.128449 0.072263 0.124163 -0.116910 0.159807 0.096397 -0.101726 -0.085775 -0.082402 -0.159899 -0.051935 0.089024 -0.168095 0.116956 -0.193062 -0.034579 0.202617 -0.006320 0.059434 -0.103956 0.166385 0.017579 0.156124 0.027600 0.140690 -0.061692 0.051716 -0.065953 -0.124318 -0.068327 0.091751 -0.083986 -0.007373 -0.047199 -0.087481 -0.051066 0.034987 0.098633 -0.092450
23 0.032695 0.125870 -0.056455 -0.047488 -0.030091 0.108438 0.209120 0.024701 -0.180451 -0.075373 0.132949 -0.130045 -0.043399 -0.125379 -0.085316 -0.080536 -0.185736 0.134959 0.119930 -0.076592 -0.095401 0.084267 -0.075128 -0.062260 -0.260839 0.142703 0.034144 -0.024295 -0.080046 -0.075184 -0.140906 0.018390 0.090038 0.160832 0.133338 -0.095856 -0.075632 0.109548 0.137144 -0.043813 0.095445 -0.103313 0.015351 -0.001537 -0.035025 0.241895 -0.041355 0.186036 -0.067424 -0.133340 -0.040884 -0.076357 -0.014493 0.119623 0.095046 0.120887 0.227511 -0.024714 0.070290 -0.035027 -0.097042 -0.053545 0.099125 -0.106618 -0.057997 0.027719 -0.093519 -0.092465 0.100665 0.143560 -0.091171 0.067731 -0.081535 -0.121992 -0.049707 0.007882 0.102180 -0.025138 0.007257 -0.118167 0.000905 0.124750 -0.029762 -0.016116 -0.040096 0.077435 0.201664 -0.149941 0.101305 -0.172205 0.013072 0.126683 -0.121148 0.122022 0.121796 -0.064882 -0.042242 -0.040227 -0.103270 -0.033733 0.069764 -0.204272 0.114561 -0.212390 0.025365 0.140835 -0.015520 0.082938 -0.114104 0.099196 0.004072 0.118129 0.144617 0.148285 0.013477 0.051687 -0.108434 -0.146058 -0.031278 -0.013310 -0.123148 -0.045341 -0.060119 -0.082846 -0.058815 0.063467 0.076013 -0.065843
22 0.013076 0.206866 -0.080620 -0.043759 0.009953 0.123810 0.185894 0.008743 -0.193145 -0.056638 0.118407 -0.115986 -0.036258 -0.228595 -0.151684 -0.125064 -0.132162 0.147271 0.140569 -0.111235 -0.119961 0.079808 -0.003217 -0.117982 -0.242905 0.103351 0.021698 -0.025588 -0.060341 -0.061978 -0.091774 -0.023224 0.064686 0.203738 0.106998 -0.056248 0.009888 0.127095 0.107058 -0.031586 0.046956 -0.134202 0.047667 0.038794 -0.148545 0.247187 -0.054516 0.210762 -0.047621 -0.094984 -0.032145 -0.146451 -0.031143 0.202252 0.052118 0.072790 0.217618 -0.002630 0.063166 0.019737 -0.111870 -0.059195 0.127867 -0.023844 -0.068251 0.021486 -0.122498 -0.049030 -0.002487 0.066992 -0.058359 0.085877 0.044960 -0.087474 -0.049715 -0.042448 0.062285 -0.104802 -0.000482 -0.060564 0.000226 0.086722 -0.071718 -0.003766 -0.001091 0.062244 0.200602 -0.113047 0.083356 -0.140608 0.067245 0.128408 -0.119086 0.163037 0.092006 -0.102541 -0.090109 -0.077659 -0.158454 -0.050536 0.092659 -0.171307 0.116619 -0.200604 -0.033092 0.207330 -0.009436 0.061514 -0.108829 0.171847 0.013501 0.157070 0.033880 0.144852 -0.064107 0.047829 -0.063474 -0.127407 -0.065567 0.085669 -0.085834 -0.012623 -0.045060 -0.085458 -0.055424 0.037299 0.101196 -0.090197
15 0.033359 0.138950 -0.068008 -0.050578 -0.026816 0.122317 0.217488 0.027687 -0.195264 -0.081072 0.140133 -0.138242 -0.048608 -0.146489 -0.095229 -0.087194 -0.197926 0.148028 0.138562 -0.084001 -0.107475 0.089859 -0.077025 -0.077378 -0.283896 0.147603 0.033153 -0.025487 -0.084288 -0.078586 -0.146046 0.012909 0.095372 0.183134 0.143718 -0.097448 -0.079271 0.113603 0.149166 -0.040397 0.092472 -0.121479 0.018667 0.003718 -0.047189 0.256997 -0.049999 0.206464 -0.070562 -0.144811 -0.041905 -0.091202 -0.014200 0.132294 0.097767 0.127088 0.245270 -0.018553 0.081342 -0.032726 -0.102793 -0.063142 0.107851 -0.107390 -0.059306 0.025810 -0.111543 -0.091587 0.101852 0.143360 -0.091606 0.073784 -0.073755 -0.134145 -0.054284 0.001707 0.101134 -0.033099 0.005422 -0.121715 -0.005179 0.129708 -0.035102 -0.016158 -0.039297 0.083433 0.223183 -0.158195 0.107540 -0.182960 0.020224 0.141653 -0.128474 0.135914 0.126337 -0.071924 -0.050292 -0.048757 -0.111348 -0.036774 0.079247 -0.216140 0.123310 -0.231278 0.020357 0.160016 -0.019515 0.083129 -0.119904 0.116182 0.004949 0.135961 0.143047 0.158852 0.010557 0.049616 -0.110602 -0.154946 -0.036690 -0.002130 -0.128837 -0.049245 -0.068486 -0.090537 -0.064425 0.067443 0.080995 -0.079436
21 0.025954 0.141129 -0.062513 -0.051072 -0.018862 0.114802 0.196191 0.022322 -0.180461 -0.068963 0.126613 -0.124713 -0.043451 -0.153138 -0.103244 -0.095553 -0.169952 0.141208 0.131641 -0.089889 -0.103699 0.079918 -0.054324 -0.078144 -0.252995 0.129353 0.026116 -0.026295 -0.077339 -0.069734 -0.124412 0.001981 0.077506 0.178032 0.126115 -0.081689 -0.054554 0.111517 0.133231 -0.034874 0.078580 -0.114042 0.021663 0.010635 -0.070241 0.234670 -0.049913 0.191844 -0.060007 -0.125108 -0.036839 -0.099420 -0.019903 0.140156 0.077805 0.107232 0.224243 -0.015307 0.071267 -0.013304 -0.099572 -0.058257 0.104556 -0.077561 -0.057173 0.023627 -0.105200 -0.075091 0.072114 0.119108 -0.082622 0.074206 -0.045077 -0.117998 -0.050596 -0.008801 0.088078 -0.052175 0.004585 -0.102516 0.003365 0.110751 -0.042248 -0.006795 -0.030283 0.075741 0.204132 -0.141481 0.093511 -0.168063 0.023956 0.131762 -0.115936 0.136743 0.108748 -0.074850 -0.057520 -0.056275 -0.119971 -0.037496 0.074648 -0.197266 0.118451 -0.215651 0.012560 0.158851 -0.014114 0.071813 -0.110361 0.123329 0.004831 0.134886 0.113828 0.148765 -0.007262 0.048206 -0.090822 -0.135533 -0.044267 0.015077 -0.117180 -0.037011 -0.056208 -0.089974 -0.054441 0.057407 0.082931 -0.078742
17 -0.000010 0.272502 -0.083686 -0.036529 0.024280 0.122402 0.161716 -0.011942 -0.210244 -0.041725 0.113093 -0.101141 -0.029414 -0.284606 -0.186631 -0.161995 -0.094237 0.152170 0.142970 -0.132778 -0.137228 0.072649 0.048473 -0.147693 -0.215905 0.070610 0.007417 -0.024930 -0.037681 -0.047958 -0.048165 -0.047027 0.042282 0.223297 0.090129 -0.024119 0.057973 0.144836 0.079710 -0.018418 0.017448 -0.146512 0.063667 0.065414 -0.229662 0.237503 -0.059753 0.211232 -0.038317 -0.066638 -0.023226 -0.175878 -0.039388 0.258026 0.023368 0.044034 0.205854 0.005161 0.062299 0.063161 -0.126802 -0.067054 0.143502 0.022419 -0.086610 0.022923 -0.130370 -0.017974 -0.061527 0.007263 -0.034045 0.090759 0.117253 -0.058515 -0.036463 -0.082664 0.031406 -0.147481 -0.012606 -0.015966 0.016039 0.043889 -0.097960 0.000210 0.034704 0.037686 0.169117 -0.081555 0.048950 -0.100677 0.104824 0.128683 -0.115863 0.174512 0.070384 -0.116300 -0.121748 -0.103570 -0.198904 -0.063026 0.110055 -0.144441 0.113440 -0.176429 -0.074728 0.238104 -0.000074 0.037865 -0.101435 0.205754 0.030733 0.184760 -0.037618 0.137721 -0.114560 0.053963 -0.039251 -0.104585 -0.099679 0.149540 -0.050299 0.012427 -0.037368 -0.082691 -0.046956 0.027926 0.120113 -0.100377
10 0.026570 0.155747 -0.075237 -0.048649 -0.010031 0.111881 0.193726 0.018022 -0.180995 -0.065353 0.127668 -0.120583 -0.042379 -0.168707 -0.116880 -0.102955 -0.158317 0.145125 0.133783 -0.090273 -0.106749 0.085693 -0.042801 -0.090146 -0.255712 0.122738 0.027263 -0.030916 -0.068681 -0.070566 -0.118122 -0.003972 0.079261 0.192170 0.127837 -0.077815 -0.035270 0.117061 0.134133 -0.033910 0.072040 -0.116733 0.028792 0.015397 -0.086440 0.244702 -0.049029 0.202570 -0.058060 -0.120610 -0.034786 -0.115031 -0.019663 0.157985 0.069477 0.098528 0.221824 -0.013799 0.067095 -0.005472 -0.107638 -0.056836 0.114750 -0.065513 -0.068109 0.027961 -0.109935 -0.074160 0.054438 0.103926 -0.073536 0.081929 -0.023216 -0.109376 -0.051848 -0.014656 0.082187 -0.066248 -0.000917 -0.088293 -0.006550 0.105604 -0.052506 -0.004175 -0.025974 0.079268 0.210560 -0.138791 0.096887 -0.162001 0.034570 0.132057 -0.120544 0.146156 0.109598 -0.080845 -0.065213 -0.063750 -0.129630 -0.040700 0.079941 -0.196490 0.117577 -0.209892 0.001088 0.176954 -0.009851 0.069105 -0.111401 0.134650 0.002622 0.144843 0.096617 0.145561 -0.021272 0.044084 -0.083483 -0.134105 -0.049175 0.035863 -0.105771 -0.029627 -0.052549 -0.085144 -0.059106 0.047848 0.088336 -0.085153
19 0.032496 0.136965 -0.060998 -0.047057 -0.019173 0.111788 0.194029 0.020251 -0.177623 -0.069579 0.122998 -0.118568 -0.043477 -0.146448 -0.097836 -0.088559 -0.169159 0.138458 0.126138 -0.080852 -0.096581 0.083111 -0.059084 -0.074840 -0.252908 0.132199 0.030699 -0.025755 -0.073754 -0.068597 -0.127114 0.001866 0.082466 0.172370 0.122235 -0.085217 -0.058280 0.111607 0.132768 -0.039248 0.081962 -0.108245 0.021940 0.009646 -0.062227 0.234431 -0.048207 0.188916 -0.062341 -0.122112 -0.032035 -0.096338 -0.019607 0.138190 0.079165 0.104837 0.216298 -0.014762 0.068430 -0.019093 -0.097138 -0.058803 0.101557 -0.083612 -0.057684 0.026289 -0.101701 -0.075118 0.071580 0.122930 -0.077951 0.073166 -0.045989 -0.116417 -0.047961 -0.002013 0.085602 -0.042640 0.004298 -0.098362 -0.003586 0.108966 -0.044383 -0.008983 -0.033804 0.071568 0.200082 -0.137281 0.096760 -0.163159 0.028016 0.124185 -0.119334 0.128486 0.112558 -0.074041 -0.051667 -0.048110 -0.109843 -0.034031 0.075110 -0.190232 0.108617 -0.210120 0.009527 0.158331 -0.014096 0.076331 -0.104342 0.116820 0.005950 0.128434 0.112195 0.144382 -0.000684 0.047843 -0.093742 -0.135614 -0.041538 0.008422 -0.107431 -0.039406 -0.055470 -0.085385 -0.058541 0.053392 0.076676 -0.070137
18 0.010052 0.205693 -0.079839 -0.044400 0.003947 0.120176 0.187845 0.007640 -0.189032 -0.055028 0.117037 -0.118990 -0.044661 -0.223342 -0.140244 -0.119296 -0.137752 0.150548 0.139578 -0.109349 -0.120889 0.083603 -0.005206 -0.115282 -0.242617 0.105713 0.021495 -0.029085 -0.063586 -0.059507 -0.093916 -0.027122 0.068180 0.196750 0.107902 -0.055682 0.005741 0.125248 0.107929 -0.028776 0.051437 -0.134433 0.045714 0.029405 -0.148502 0.238415 -0.058842 0.202265 -0.052248 -0.099398 -0.033720 -0.145129 -0.034537 0.194586 0.047372 0.073885 0.219176 -0.003401 0.061194 0.021329 -0.111326 -0.059791 0.122156 -0.027089 -0.063312 0.019787 -0.122059 -0.056319 0.004289 0.069150 -0.064047 0.084720 0.035601 -0.087779 -0.051305 -0.037118 0.062408 -0.096300 0.003342 -0.063150 0.001468 0.084466 -0.071342 -0.002376 -0.003924 0.066295 0.198356 -0.118367 0.087671 -0.138669 0.067684 0.126185 -0.114121 0.160363 0.093578 -0.101083 -0.085005 -0.078013 -0.152603 -0.045485 0.091922 -0.171189 0.113974 -0.202031 -0.027188 0.201999 -0.011850 0.060583 -0.107920 0.166255 0.008750 0.161238 0.039104 0.148315 -0.054064 0.046290 -0.068777 -0.124760 -0.065727 0.073976 -0.084882 -0.011719 -0.048595 -0.092040 -0.053819 0.040323 0.102566 -0.091056
12 -0.000701 0.249172 -0.086955 -0.042575 0.018995 0.117344 0.172291 0.000764 -0.197097 -0.043635 0.112440 -0.100759 -0.031416 -0.259742 -0.170527 -0.145112 -0.097144 0.147602 0.136427 -0.119733 -0.128972 0.070868 0.029909 -0.138129 -0.217773 0.073506 0.017963 -0.018738 -0.043086 -0.050775 -0.051716 -0.043234 0.048084 0.206582 0.091045 -0.034212 0.046928 0.136928 0.083288 -0.024815 0.026892 -0.139735 0.059836 0.047453 -0.199848 0.229927 -0.050564 0.203495 -0.031376 -0.070869 -0.027695 -0.157334 -0.034180 0.226298 0.029906 0.051309 0.197217 0.001074 0.054762 0.043511 -0.117246 -0.057913 0.131998 0.016057 -0.072317 0.025506 -0.114762 -0.032470 -0.050598 0.029613 -0.036746 0.089600 0.091228 -0.061392 -0.041149 -0.069936 0.038206 -0.130523 -0.006979 -0.027802 0.003861 0.050879 -0.083865 0.002522 0.019346 0.043726 0.166916 -0.086581 0.056848 -0.110286 0.089502 0.123836 -0.109850 0.165567 0.076637 -0.109131 -0.107873 -0.095184 -0.175703 -0.062094 0.099135 -0.140671 0.106491 -0.176343 -0.060037 0.216420 -0.005197 0.044108 -0.099386 0.185707 0.023410 0.168215 -0.022439 0.127999 -0.097940 0.042714 -0.041860 -0.104055 -0.079985 0.127520 -0.051576 0.010589 -0.037213 -0.082371 -0.046474 0.030440 0.107738 -0.090601
